%YAML:1.0
my_svm: !!opencv-ml-svm
   svm_type: C_SVC
   kernel: { type:RBF, gamma:5.3830000000000000e+000 }
   C: 2.6699999999999999e+000
   term_criteria: { epsilon:1.1920928955078125e-007, iterations:1000 }
   var_all: 64
   var_count: 64
   class_count: 10
   class_labels: !!opencv-matrix
      rows: 1
      cols: 10
      dt: i
      data: [ 0, 1, 2, 3, 4, 5, 6, 7, 8, 9 ]
   sv_total: 1934
   support_vectors:
      - [ 7.39658475e-002, 1.60084501e-001, 2.70327151e-001,
          1.73054948e-001, 0., 0., 0., 0., 3.75689641e-002,
          9.99243334e-002, 1.01436608e-001, 4.24310490e-002, 0., 0.,
          1.16048388e-001, 1.58701181e-001, 1.89366221e-001,
          2.13720202e-002, 0., 5.42435944e-002, 1.51907176e-001,
          1.07401893e-001, 8.91857967e-002, 5.06556146e-002,
          1.30615711e-001, 2.00369313e-001, 0., 0., 1.84904397e-001,
          2.36774698e-001, 1.38465434e-001, 1.89977810e-001, 0.,
          2.11188514e-002, 0., 1.34735644e-001, 1.70930907e-001,
          2.23958150e-001, 1.92289159e-001, 1.33166716e-001,
          1.67233676e-001, 1.00537099e-001, 0., 0., 8.75978172e-002,
          1.14727952e-001, 7.29644969e-002, 1.70490425e-002,
          1.41888842e-001, 1.35893658e-001, 8.65959600e-002,
          1.33390516e-001, 4.08313647e-002, 0., 4.22054492e-002,
          1.87206060e-001, 1.63883194e-001, 2.11047530e-001,
          2.17614189e-001, 1.56616628e-001, 1.31435081e-001,
          9.81545225e-002, 9.52212960e-002, 1.33301750e-001 ]
      - [ 1.38645336e-001, 2.49876827e-001, 1.34261027e-001,
          1.48984537e-001, 0., 0., 0., 0., 0., 1.95289746e-001,
          4.59415913e-002, 0., 0., 0., 0., 1.90098986e-001,
          1.89970240e-001, 3.46826017e-002, 0., 0., 1.52172372e-001,
          9.51969549e-002, 8.14712718e-002, 1.16287157e-001,
          1.99227631e-001, 9.19428840e-002, 0., 2.52730455e-002,
          1.79844126e-001, 1.66976228e-001, 1.62388444e-001,
          2.11305916e-001, 4.96734381e-002, 0., 3.20319608e-002,
          1.18176758e-001, 1.88214809e-001, 1.19859017e-001,
          1.36345312e-001, 2.53728360e-001, 8.65580961e-002,
          1.68368414e-001, 1.05479650e-001, 5.91072030e-002,
          5.91823235e-002, 0., 6.99541271e-002, 1.80616871e-001,
          1.23196967e-001, 1.31799415e-001, 1.35745391e-001,
          1.49643943e-001, 0., 0., 0., 1.74258485e-001, 1.88237593e-001,
          2.39105120e-001, 1.60231039e-001, 1.30493939e-001,
          1.40048385e-001, 0., 6.35527596e-002, 1.66249722e-001 ]
      - [ 2.39823326e-001, 1.72485948e-001, 2.11610764e-001,
          1.52326882e-001, 0., 4.98575605e-002, 3.53886001e-002, 0.,
          1.87096402e-001, 2.15005144e-001, 1.34026438e-001,
          9.44182053e-002, 0., 0., 0., 5.34036122e-002, 0., 0., 0.,
          1.12154499e-001, 9.75972936e-002, 1.56131461e-001,
          1.25653967e-001, 1.30906984e-001, 1.54149339e-001, 0., 0.,
          1.12370439e-001, 1.18330345e-001, 1.82122037e-001,
          2.31108218e-001, 1.90225169e-001, 1.41494676e-001,
          5.70676550e-002, 8.48164186e-002, 5.03779836e-002,
          1.03895359e-001, 1.41931653e-001, 1.44908056e-001,
          2.03294054e-001, 1.41170219e-001, 5.43828718e-002,
          8.22893456e-002, 9.54226255e-002, 0., 0., 9.95138586e-002,
          2.08800584e-001, 1.34553134e-001, 1.91872761e-001,
          2.03117535e-001, 9.39121544e-002, 0., 0., 5.29307760e-002, 0.,
          1.68019280e-001, 1.78696454e-001, 2.48670921e-001,
          1.70483902e-001, 0., 0., 9.27426293e-003, 0. ]
      - [ 1.93324253e-001, 2.16453418e-001, 1.53889254e-001,
          5.32931127e-002, 1.33683518e-001, 0., 0., 0., 1.94581702e-001,
          1.18217960e-001, 8.73427391e-002, 6.15871288e-002, 0., 0., 0.,
          1.29195079e-001, 1.40421197e-001, 3.61487782e-003,
          2.43947189e-002, 0., 0., 8.71271938e-002, 1.34577751e-001,
          2.15565965e-001, 1.27631247e-001, 0., 0., 0., 1.27050281e-001,
          1.94395214e-001, 1.06045343e-001, 2.76158392e-001,
          1.81946591e-001, 9.56406817e-003, 0., 0., 2.50407070e-001,
          1.15246512e-001, 1.78639084e-001, 1.98503569e-001,
          9.07484889e-002, 3.43705192e-002, 0., 1.93085536e-001,
          9.19777229e-002, 1.01810053e-001, 0., 8.86891782e-002,
          2.14499757e-001, 1.32693857e-001, 1.65114716e-001,
          1.29189417e-001, 0., 3.24154869e-002, 1.23672681e-002,
          1.26779675e-001, 2.47121975e-001, 1.94007173e-001,
          1.58889040e-001, 1.96250558e-001, 0., 0., 0., 0. ]
      - [ 1.63073644e-001, 2.09335923e-001, 1.17615618e-001,
          1.64239362e-001, 1.68790355e-001, 0., 6.59703463e-002,
          8.79558921e-002, 9.20312703e-002, 1.75823182e-001,
          6.70733675e-002, 8.04584995e-002, 1.65256247e-001, 0.,
          7.75911659e-002, 7.40067586e-002, 1.29460633e-001, 0., 0.,
          1.26876846e-001, 1.83081374e-001, 8.51850212e-002,
          7.14637861e-002, 8.73445943e-002, 1.49877310e-001,
          1.00215264e-001, 0., 1.67218000e-001, 1.70309618e-001,
          1.86956376e-001, 8.14633071e-002, 2.00923771e-001, 0., 0., 0.,
          0., 1.97023109e-001, 2.63034344e-001, 1.51016980e-001,
          1.24687262e-001, 0., 0., 0., 0., 1.58664703e-001,
          1.96229726e-001, 1.79666266e-001, 0., 1.24863401e-001,
          3.84471714e-002, 1.78376675e-001, 2.32108355e-001,
          2.08234191e-002, 0., 0., 8.85692388e-002, 1.48792669e-001,
          1.12706229e-001, 2.33729780e-001, 2.40769714e-001,
          2.08234191e-002, 0., 0., 0. ]
      - [ 1.62545115e-001, 2.60655820e-001, 2.30333656e-001, 0., 0., 0.,
          0., 0., 1.49825305e-001, 1.17542751e-001, 1.50266618e-001, 0.,
          0., 4.92952242e-002, 0., 0., 1.52294978e-001, 2.18152571e-002,
          3.62582877e-002, 1.59671232e-001, 9.91572216e-002,
          7.74754733e-002, 4.99844030e-002, 8.68330449e-002,
          1.82948530e-001, 1.11196898e-001, 6.25972599e-002,
          5.89677207e-002, 1.69645190e-001, 1.73838541e-001,
          1.99332193e-001, 1.62732467e-001, 0., 7.74092749e-002,
          1.33307472e-001, 1.42764479e-001, 9.60650668e-002,
          1.26666993e-001, 1.62898615e-001, 2.18319237e-001,
          1.10841215e-001, 1.18590415e-001, 1.39622808e-001,
          1.34886622e-001, 9.52907130e-002, 6.94810748e-002,
          7.64747113e-002, 1.46009922e-001, 1.56565085e-001,
          1.31575808e-001, 1.81761399e-001, 1.85157984e-001, 0., 0.,
          8.18651840e-002, 1.40108436e-001, 1.35477290e-001,
          1.98427081e-001, 2.21545160e-001, 2.13294268e-001, 0., 0., 0.,
          0. ]
      - [ 1.53065547e-001, 1.76350743e-001, 2.46345565e-001,
          1.47887528e-001, 0., 0., 0., 0., 9.08945799e-002,
          1.66724741e-001, 1.57462686e-001, 8.55198428e-002,
          7.93974474e-002, 6.09878972e-002, 2.61031520e-002,
          1.19976372e-001, 1.43898293e-001, 1.86161380e-002,
          3.75170745e-002, 0., 9.84880328e-002, 1.77334383e-001,
          1.22011453e-001, 1.60447598e-001, 1.17618978e-001, 0.,
          3.97364423e-002, 8.09999332e-002, 1.96596637e-001,
          1.56197608e-001, 1.84472591e-001, 1.84043169e-001, 0.,
          2.61401236e-002, 0., 0., 1.75653398e-001, 3.03571731e-001,
          1.54846832e-001, 1.17909424e-001, 0., 4.54945527e-002,
          1.31118268e-001, 1.21925361e-001, 1.10305525e-001,
          1.43055141e-001, 1.96303442e-001, 4.61449064e-002,
          1.74468607e-001, 5.51122986e-002, 5.14864847e-002,
          1.18882783e-001, 1.29348814e-001, 7.69214407e-002,
          3.99732627e-002, 1.69887275e-001, 1.11982621e-001,
          1.41324475e-001, 1.99965626e-001, 1.30820930e-001,
          1.42201275e-001, 5.26697673e-002, 6.88357800e-002,
          1.50907472e-001 ]
      - [ 1.41155332e-001, 1.47506699e-001, 1.24368675e-001,
          1.29756212e-001, 2.02822134e-001, 8.18633288e-002,
          1.02730475e-001, 1.21615924e-001, 7.25874901e-002,
          6.53397338e-003, 0., 0., 1.95274547e-001, 1.23473376e-001,
          9.90718380e-002, 0., 0., 0., 0., 0., 1.33243039e-001,
          1.33296132e-001, 1.70840099e-001, 1.24360390e-001,
          1.29186660e-001, 0., 0., 0., 1.33924559e-001, 2.60274619e-001,
          1.53732702e-001, 2.18075946e-001, 0., 0., 0., 0., 0.,
          2.63872951e-001, 2.10622624e-001, 1.67305768e-001,
          1.01885498e-001, 0., 0., 0., 1.15685210e-001, 1.47251427e-001,
          2.32986152e-001, 1.16648361e-001, 2.15371475e-001,
          9.84311700e-002, 8.11987743e-002, 1.62943348e-001,
          1.44956008e-001, 0., 0., 7.98136517e-002, 2.04528898e-001,
          2.04553753e-001, 1.68379694e-001, 2.05452338e-001,
          6.66229352e-002, 0., 0., 0. ]
      - [ 2.30037451e-001, 2.23544836e-001, 8.27608556e-002,
          1.20904796e-001, 6.01015575e-002, 9.28189158e-002,
          8.37116018e-002, 6.26826137e-002, 2.07431570e-001,
          2.18804583e-001, 0., 0., 0., 0., 0., 0., 0., 0.,
          1.66302826e-002, 1.29384145e-001, 1.27117217e-001,
          1.33946687e-001, 1.02862366e-001, 1.62293211e-001, 0., 0., 0.,
          1.27378926e-001, 1.61754221e-001, 1.82194829e-001,
          1.53443143e-001, 2.34289616e-001, 0., 8.82512778e-002,
          2.95917243e-002, 8.22699741e-002, 9.28958952e-002,
          2.28631705e-001, 2.23621517e-001, 1.52679697e-001, 0., 0., 0.,
          0., 0., 4.09658030e-002, 2.83944398e-001, 1.45362496e-001,
          1.19518377e-001, 1.18369557e-001, 1.62825450e-001,
          2.08988369e-001, 0., 0., 0., 0., 1.77634433e-001,
          2.23435149e-001, 1.56741381e-001, 2.48802632e-001, 0., 0., 0.,
          0. ]
      - [ 1.86687633e-001, 2.40533337e-001, 1.57063767e-001,
          1.25745267e-001, 1.21071257e-001, 7.80894607e-003, 0., 0., 0.,
          1.91865847e-001, 2.15200812e-001, 0., 0., 0., 0., 0.,
          1.53521925e-001, 0., 0., 2.10804924e-001, 1.23058446e-001,
          7.23085627e-002, 8.35191086e-002, 0., 1.89165145e-001,
          6.54763356e-002, 0., 1.70135230e-001, 2.04393491e-001,
          1.08264200e-001, 1.41114682e-001, 2.00136200e-001, 0., 0., 0.,
          0., 1.59769386e-001, 2.44920999e-001, 1.65510222e-001,
          1.70335397e-001, 0., 0., 0., 0., 8.09796527e-002,
          1.99991256e-001, 1.84841320e-001, 6.13299422e-002,
          1.18745267e-001, 1.34566367e-001, 1.71747550e-001,
          1.81017265e-001, 3.00756563e-002, 2.39594150e-002, 0.,
          7.78497756e-002, 1.90660924e-001, 1.88577071e-001,
          1.50286064e-001, 2.61050969e-001, 0., 7.59864645e-003,
          3.36506078e-003, 0. ]
      - [ 1.91216812e-001, 2.27184102e-001, 1.33780956e-001,
          1.17252141e-001, 0., 0., 0., 0., 1.29285246e-001,
          8.10068026e-002, 4.72001620e-002, 0., 0., 2.51430478e-002, 0.,
          1.97560862e-001, 2.00941995e-001, 1.16307372e-002, 0.,
          4.07860018e-002, 0., 0., 8.05296525e-002, 1.75972551e-001,
          1.27026007e-001, 3.23535092e-002, 0., 0., 0., 1.84765622e-001,
          2.13032365e-001, 2.37289190e-001, 1.17296681e-001,
          3.61888707e-002, 5.88098951e-002, 0., 2.08257452e-001,
          1.80152580e-001, 1.62200883e-001, 2.66528308e-001,
          1.36354461e-001, 1.04485050e-001, 9.18994695e-002, 0.,
          1.22880496e-001, 6.56760707e-002, 9.35367048e-002,
          1.08211257e-001, 1.78842232e-001, 1.23233192e-001,
          8.91472250e-002, 8.13092962e-002, 8.70583802e-002,
          6.76116273e-002, 0., 1.06549077e-001, 2.83561319e-001,
          2.66580254e-001, 1.35774672e-001, 1.28122419e-001,
          1.46297753e-001, 4.58868667e-002, 0., 1.33355409e-001 ]
      - [ 2.41389617e-001, 2.05563828e-001, 1.30874276e-001,
          2.07831547e-001, 0., 0., 0., 5.06151980e-003, 7.19076023e-002,
          1.40003189e-001, 1.67032946e-002, 1.13179022e-002, 0., 0., 0.,
          0., 1.74601093e-001, 2.62225177e-002, 0., 0., 1.10247269e-001,
          9.20157135e-002, 8.64794627e-002, 1.08572513e-001,
          8.27979371e-002, 1.61964580e-001, 0., 1.27839461e-001,
          1.41474083e-001, 2.19845846e-001, 1.25674650e-001,
          1.95690915e-001, 1.21111438e-001, 4.38729599e-002, 0.,
          1.29483372e-001, 1.74798489e-001, 1.96743906e-001,
          2.45443389e-001, 1.78011596e-001, 0., 1.63204953e-001,
          9.79187340e-002, 8.51888657e-002, 1.22669570e-001,
          1.17560796e-001, 7.53163397e-002, 1.14864804e-001,
          1.65690094e-001, 1.17490537e-001, 1.83854744e-001,
          6.63491040e-002, 1.26879156e-001, 0., 0., 0., 2.18990117e-001,
          2.31494471e-001, 1.40436396e-001, 1.88815802e-001,
          1.81028455e-001, 0., 0., 0. ]
      - [ 2.03486383e-001, 1.32681251e-001, 1.98431268e-001,
          1.93826407e-001, 2.54184380e-002, 0., 1.89521834e-002, 0.,
          8.34907070e-002, 1.05128773e-001, 1.50316879e-001,
          4.16807197e-002, 8.49078819e-002, 0., 9.02169198e-002, 0.,
          1.48754805e-001, 6.64141169e-003, 0., 0., 4.47177440e-002,
          1.97348624e-001, 1.02536201e-001, 1.60703242e-001,
          6.39306158e-002, 0., 0., 7.90916756e-002, 2.00343758e-001,
          1.90370739e-001, 1.90840349e-001, 1.42432839e-001,
          8.74619633e-002, 1.11770354e-001, 1.55879080e-001,
          1.72687799e-001, 1.54405013e-001, 1.35930285e-001,
          1.52436852e-001, 1.43442526e-001, 1.69904515e-001,
          1.17691435e-001, 1.25999004e-001, 1.34404898e-001,
          1.75007015e-001, 3.87346484e-002, 0., 0., 2.03446180e-001,
          1.10871881e-001, 1.13271989e-001, 1.26054242e-001,
          1.67890057e-001, 5.31442575e-002, 1.52173862e-002,
          1.22239873e-001, 1.70872137e-001, 2.24389449e-001,
          1.49865955e-001, 1.97874829e-001, 1.45263866e-001, 0., 0.,
          4.91788052e-002 ]
      - [ 1.57144621e-001, 2.17727989e-001, 2.61155725e-001, 0., 0., 0.,
          0., 0., 1.53111964e-001, 1.79357439e-001, 1.59485474e-001, 0.,
          0., 0., 2.64121257e-002, 7.99902007e-002, 0., 0., 0., 0.,
          7.53612816e-002, 1.37875125e-001, 2.14387774e-001,
          1.51911408e-001, 2.15221904e-002, 0., 0., 0., 1.79199979e-001,
          1.65059015e-001, 2.23479360e-001, 2.19198301e-001, 0., 0., 0.,
          1.29191637e-001, 8.75147581e-002, 1.53947696e-001,
          2.10469767e-001, 2.50381976e-001, 0., 0., 0., 1.18463799e-001,
          6.35971129e-002, 1.05602078e-001, 1.21995062e-001,
          2.17351481e-001, 1.69679165e-001, 1.41296372e-001,
          9.47523862e-002, 1.48804799e-001, 0., 0., 8.20068829e-003,
          1.21077761e-001, 2.27993697e-001, 1.70429111e-001,
          1.95540071e-001, 1.30866989e-001, 1.30971983e-001, 0.,
          6.35222578e-003, 1.59483269e-001 ]
      - [ 2.20612407e-001, 1.66716024e-001, 1.26694739e-001,
          1.39440417e-001, 1.23067319e-001, 0., 0., 0., 1.24979526e-001,
          1.89731732e-001, 1.18225358e-001, 6.54853135e-002, 0., 0.,
          4.08488289e-002, 1.84571579e-001, 1.73851952e-001,
          3.53264175e-002, 0., 0., 4.10686247e-002, 9.95448008e-002,
          1.51344374e-001, 2.11507455e-001, 8.90823901e-002, 0., 0., 0.,
          8.27495977e-002, 1.70678318e-001, 2.05887079e-001,
          2.01808289e-001, 8.85920450e-002, 0., 0., 1.74023241e-001,
          1.51775464e-001, 1.18213095e-001, 1.74407542e-001,
          1.75363287e-001, 1.70109615e-001, 3.73308286e-002,
          1.50116608e-001, 1.36004299e-001, 9.97725353e-002, 0.,
          1.08304687e-001, 1.68303221e-001, 2.02363193e-001,
          1.81877300e-001, 1.00395672e-001, 1.16559967e-001,
          7.75137469e-002, 0., 5.24168648e-002, 7.97674358e-002,
          2.53181189e-001, 2.00341150e-001, 1.69645458e-001,
          1.61304474e-001, 0., 0., 0., 0. ]
      - [ 8.74786377e-002, 2.50404805e-001, 2.37706259e-001,
          9.61300954e-002, 1.20246679e-001, 4.30933796e-002, 0., 0.,
          1.14117235e-001, 7.92028978e-002, 1.74306110e-001,
          1.25498071e-001, 8.64610970e-002, 0., 0., 0., 1.37625724e-001,
          0., 0., 0., 1.95385978e-001, 1.10822953e-001, 1.08883552e-001,
          0., 1.66543499e-001, 1.02173403e-001, 0., 1.21056728e-001,
          1.74435809e-001, 1.85414493e-001, 2.18772143e-001,
          1.06524125e-001, 0., 0., 0., 0., 1.49674878e-001,
          3.31497461e-001, 1.55317947e-001, 7.21186250e-002, 0.,
          2.63454020e-002, 4.81935665e-002, 0., 1.75083771e-001,
          2.30166227e-001, 9.01345760e-002, 0., 7.18249828e-002,
          9.40349102e-002, 1.69333830e-001, 1.71487525e-001,
          9.46890414e-002, 0., 0., 1.57571286e-001, 1.25947103e-001,
          1.35498747e-001, 1.71860158e-001, 2.27462515e-001,
          1.22334994e-001, 7.22779408e-002, 1.18096940e-001,
          6.83915019e-002 ]
      - [ 2.81241477e-001, 1.01465330e-001, 1.12432741e-001,
          8.24813843e-002, 1.22748710e-001, 1.57981321e-001,
          1.07211666e-002, 5.25444336e-002, 1.98148876e-001,
          1.20934136e-001, 5.89893386e-002, 7.06264600e-002, 0.,
          7.47559443e-002, 8.56813639e-002, 6.17869645e-002,
          1.29937097e-001, 0., 3.67847122e-002, 1.77989393e-001,
          9.18965116e-002, 6.75821006e-002, 7.78594762e-002,
          8.85230303e-002, 2.10864678e-001, 4.30414975e-002,
          2.08920706e-002, 1.75475076e-001, 1.25649095e-001,
          2.11705267e-001, 1.11927792e-001, 2.07910582e-001, 0.,
          7.33170435e-002, 3.59228104e-002, 2.06578568e-001,
          8.22165981e-002, 1.77015677e-001, 2.12660864e-001,
          1.22967914e-001, 0., 3.98011096e-002, 1.21264860e-001,
          1.31808460e-001, 9.66545269e-002, 1.20892450e-001,
          8.13611522e-002, 1.50827974e-001, 1.20486915e-001,
          1.75018117e-001, 1.73725471e-001, 1.47313654e-001, 0., 0., 0.,
          2.72489619e-002, 1.75077885e-001, 2.02350259e-001,
          2.45601505e-001, 1.81204438e-001, 0., 0., 0., 3.36246863e-002 ]
      - [ 2.97820568e-001, 1.84621304e-001, 1.30868852e-001, 0., 0.,
          3.83457467e-002, 0., 7.23374560e-002, 1.94825605e-001,
          6.40801415e-002, 0., 0., 0., 0., 0., 8.79606083e-002,
          1.93899363e-001, 4.81002368e-002, 0., 0., 7.04166293e-002,
          1.16655305e-001, 1.37499660e-001, 1.28003478e-001,
          1.89495623e-001, 0., 0., 4.95499559e-002, 1.87546715e-001,
          1.33648083e-001, 1.32784590e-001, 2.38251030e-001,
          9.02184024e-002, 0., 8.47474262e-002, 9.70306769e-002,
          1.23730086e-001, 1.06317848e-001, 2.25473255e-001,
          1.51923850e-001, 2.23232433e-001, 1.60427839e-001, 0., 0.,
          3.27771157e-002, 0., 6.69623017e-002, 2.14875415e-001,
          2.25524753e-001, 1.11342296e-001, 1.63772836e-001,
          1.18855290e-001, 0., 0., 3.24509852e-002, 1.47871271e-001,
          2.31173649e-001, 2.00928077e-001, 1.56569794e-001,
          2.11031318e-001, 0., 3.83322202e-002, 0., 0. ]
      - [ 9.99689326e-002, 1.52132794e-001, 2.92741865e-001,
          1.95103854e-001, 4.57626861e-003, 0., 0., 0., 4.86382097e-002,
          9.55774635e-002, 1.27018750e-001, 1.77531198e-001,
          1.47222012e-001, 6.43380955e-002, 1.16844624e-002, 0.,
          9.54021737e-002, 0., 0., 1.58060655e-001, 1.79793313e-001,
          1.03651926e-001, 7.07924068e-002, 7.44589046e-002,
          8.95235240e-002, 1.39099166e-001, 0., 3.86111848e-002,
          2.65849590e-001, 1.48165822e-001, 1.28654703e-001,
          1.72215149e-001, 0., 0., 0., 0., 2.48119131e-001,
          1.54536426e-001, 2.10532546e-001, 9.87023264e-002, 0.,
          6.79814443e-002, 2.04648808e-001, 4.24443074e-002,
          1.24698043e-001, 1.19751878e-001, 1.21282026e-001,
          9.40788239e-002, 1.18939020e-001, 1.32560372e-001,
          1.60418257e-001, 1.71521142e-001, 1.23277038e-001, 0.,
          5.29719256e-002, 1.20444328e-001, 1.15556113e-001,
          1.51432544e-001, 1.72765583e-001, 2.74535924e-001,
          1.21076684e-002, 0., 0., 1.65967494e-002 ]
      - [ 1.73121527e-001, 1.25134796e-001, 2.06766516e-001,
          1.13871194e-001, 0., 0., 0., 0., 5.72118126e-002, 0.,
          5.97075783e-002, 3.98882963e-002, 8.90662223e-002,
          7.15945214e-002, 1.29739285e-001, 1.63492411e-001,
          3.19328755e-001, 4.52478416e-002, 0., 0., 9.00651813e-002, 0.,
          1.10828072e-001, 0., 2.54283458e-001, 0., 0., 1.40922233e-001,
          1.27972603e-001, 1.11811720e-001, 9.62584317e-002,
          1.17858663e-001, 1.08498327e-001, 0., 0., 1.43782824e-001,
          1.47090271e-001, 1.12867802e-001, 2.35215783e-001,
          1.71303406e-001, 1.61793083e-001, 1.92999437e-001,
          7.58071095e-002, 0., 9.28212106e-002, 6.67171851e-002,
          7.11949095e-002, 1.30531222e-001, 1.44570574e-001,
          1.75676733e-001, 2.09846720e-001, 0., 1.96670387e-002,
          3.31498608e-002, 5.49825244e-002, 1.52172551e-001,
          2.62193650e-001, 2.17663184e-001, 1.45982087e-001,
          1.79465309e-001, 7.45373666e-002, 0., 2.63762977e-002,
          1.32057548e-001 ]
      - [ 1.30252823e-001, 1.99356094e-001, 2.35026509e-001,
          1.47719532e-001, 0., 8.78875926e-002, 0., 8.96260813e-002,
          9.06143337e-002, 6.61263168e-002, 0., 1.05961896e-001,
          7.47916475e-002, 1.14994422e-001, 9.82444957e-002,
          5.87586313e-002, 1.91403493e-001, 3.10628526e-002, 0.,
          4.41564545e-002, 9.40891206e-002, 1.06317118e-001, 0.,
          8.79989415e-002, 1.02980182e-001, 1.97946936e-001, 0.,
          3.49386260e-002, 1.36546850e-001, 1.71873569e-001,
          1.89128920e-001, 1.92761958e-001, 1.18839785e-001, 0.,
          3.11926305e-002, 1.34644270e-001, 1.34627566e-001,
          1.34657338e-001, 2.42892206e-001, 2.46588871e-001,
          9.00608450e-002, 0., 7.34772757e-002, 1.18810587e-001,
          1.15029968e-001, 7.42274150e-002, 8.54820088e-002,
          1.67424127e-001, 1.79425254e-001, 1.85891792e-001,
          1.19447067e-001, 1.11056469e-001, 0., 0., 3.67325568e-003, 0.,
          3.02966654e-001, 1.72413096e-001, 1.60114571e-001,
          2.08961964e-001, 0., 0., 0., 0. ]
      - [ 1.55980587e-001, 2.27986991e-001, 2.21801385e-001,
          1.43164724e-001, 1.09250518e-002, 0., 0., 0., 1.09839052e-001,
          1.49820700e-001, 1.97658077e-001, 8.07993189e-002,
          2.33514849e-002, 0., 0., 6.12768941e-002, 0., 0., 0., 0.,
          1.47783995e-001, 1.03106715e-001, 2.03320265e-001,
          1.19589075e-001, 0., 0., 0., 0., 1.90594018e-001,
          1.48090333e-001, 2.47219816e-001, 1.92143768e-001,
          1.47043601e-001, 3.68354507e-002, 8.36898610e-002,
          6.39031976e-002, 2.08862230e-001, 1.70889363e-001,
          1.24213405e-001, 2.32303679e-001, 3.71811464e-002, 0.,
          8.06213692e-002, 1.66672841e-001, 1.52393952e-001,
          5.92086166e-002, 0., 1.38969257e-001, 1.58822656e-001,
          1.50442362e-001, 1.34526506e-001, 8.62680823e-002,
          1.77824631e-001, 2.45922506e-002, 0., 4.48477678e-002,
          1.90394789e-001, 1.79885432e-001, 1.81420803e-001,
          2.37568751e-001, 3.84650715e-002, 0., 0., 0. ]
      - [ 2.01090693e-001, 1.97465196e-001, 1.18618563e-001,
          2.12820694e-001, 0., 0., 0., 0., 1.01205662e-001,
          1.51392728e-001, 1.72171533e-001, 0., 3.29185762e-002, 0., 0.,
          1.36934310e-001, 2.26908058e-001, 3.49138156e-002, 0., 0.,
          2.05555290e-001, 6.76116571e-002, 9.71820429e-002, 0.,
          2.29391903e-001, 4.46028709e-002, 0., 1.69144109e-001,
          1.85085490e-001, 1.04099512e-001, 1.50265783e-001,
          1.23678923e-001, 1.56023994e-001, 0., 0., 0., 1.76551744e-001,
          1.82541177e-001, 1.98198780e-001, 1.87787801e-001,
          3.40059660e-002, 0., 1.36885062e-001, 1.24689937e-001,
          8.11443329e-002, 7.73192272e-002, 1.34730965e-001,
          3.38142775e-002, 2.11698681e-001, 1.02494583e-001,
          9.95859802e-002, 1.39488935e-001, 1.14540987e-001, 0.,
          2.27453280e-002, 1.60389692e-001, 2.08551884e-001,
          1.59673229e-001, 1.00896977e-001, 2.40537703e-001, 0., 0.,
          5.93809178e-003, 1.07698828e-001 ]
      - [ 2.58756280e-001, 2.04138756e-001, 1.18945062e-001,
          1.00078031e-001, 9.10852775e-002, 1.23696394e-001, 0.,
          1.16840698e-001, 2.90482610e-001, 0., 0., 0., 0., 0., 0.,
          6.47787526e-002, 8.56157690e-002, 1.01843178e-002, 0.,
          1.33938357e-001, 5.91819435e-002, 9.09340456e-002, 0.,
          2.20518336e-001, 8.03446472e-002, 0., 0., 0., 1.42468244e-001,
          2.03893095e-001, 2.08891034e-001, 2.21434563e-001,
          1.87938467e-001, 6.62177205e-002, 1.14571691e-001,
          5.84844314e-002, 1.11100443e-001, 1.56166926e-001,
          1.54182091e-001, 1.66698888e-001, 1.84790015e-001,
          7.81486481e-002, 1.67903621e-002, 0., 0., 0., 1.40613869e-001,
          1.71313792e-001, 1.22729577e-001, 1.73025265e-001,
          2.00051129e-001, 0., 0., 1.87670067e-002, 0., 0.,
          2.36469045e-001, 2.08579317e-001, 1.88093707e-001,
          2.00597897e-001, 0., 0., 0., 0. ]
      - [ 2.61245370e-001, 2.07006797e-001, 1.41626120e-001,
          1.36604592e-001, 0., 0., 0., 4.65154015e-002, 1.80852726e-001,
          1.70172170e-001, 7.97323361e-002, 0., 0., 0., 0., 0., 0.,
          5.30787334e-002, 5.42357564e-002, 1.38959140e-001,
          9.46503058e-002, 8.17395076e-002, 6.74796999e-002,
          7.18103796e-002, 2.02787459e-001, 0., 0., 0., 1.44284278e-001,
          1.71240628e-001, 1.99902639e-001, 2.56311238e-001,
          1.69534430e-001, 0., 0., 0., 1.75812334e-001, 1.61799461e-001,
          2.10702583e-001, 2.05439329e-001, 5.68153262e-002,
          5.57671487e-002, 8.49639326e-002, 9.74034294e-002,
          1.41322315e-001, 0., 8.48450363e-002, 1.37446463e-001,
          1.17921323e-001, 2.16747582e-001, 1.84826896e-001,
          3.45950425e-002, 0., 0., 0., 0., 2.69535512e-001,
          2.15157613e-001, 2.65227735e-001, 7.47294053e-002, 0., 0., 0.,
          0. ]
      - [ 1.27378210e-001, 2.08361372e-001, 2.75732011e-001, 0., 0., 0.,
          0., 0., 0., 1.50436744e-001, 1.38644591e-001, 1.11197554e-001,
          6.88155890e-002, 9.98519883e-002, 0., 0., 1.26791373e-001,
          1.06090046e-002, 0., 1.96585506e-001, 9.70950648e-002,
          8.99646208e-002, 6.65286481e-002, 1.10090636e-001,
          1.06996432e-001, 1.16074204e-001, 5.11009693e-002,
          1.26463756e-001, 1.59701452e-001, 2.14055777e-001,
          1.40520141e-001, 1.46334529e-001, 0., 0., 0., 1.82787418e-001,
          2.08756417e-001, 2.56317586e-001, 9.44859013e-002,
          9.49629918e-002, 0., 9.22036842e-002, 1.22626454e-001,
          1.74913481e-001, 1.69749111e-001, 1.07596867e-001,
          6.15192503e-002, 0., 2.93478798e-002, 9.84980687e-002,
          1.45832315e-001, 2.03505233e-001, 1.77875012e-002,
          7.19106421e-002, 1.54656276e-001, 8.89796987e-002,
          1.27418175e-001, 1.33686334e-001, 1.85044080e-001,
          2.74581075e-001, 6.00607917e-002, 6.67354390e-002,
          1.17738731e-001, 1.23759411e-001 ]
      - [ 5.98476753e-002, 2.59549558e-001, 2.61690170e-001, 0., 0., 0.,
          0., 0., 0., 1.32554501e-001, 1.12022199e-001, 1.25399932e-001,
          0., 1.46875933e-001, 0., 4.21082750e-002, 1.71563551e-001,
          1.33802667e-001, 1.04529373e-001, 1.35279924e-001, 0., 0.,
          5.32542951e-002, 1.45595700e-001, 1.26635432e-001,
          1.95755512e-001, 6.96980432e-002, 4.99840342e-002,
          1.35830879e-001, 1.33645818e-001, 1.51612550e-001,
          1.65766925e-001, 0., 0., 0., 1.45959213e-001, 1.25932172e-001,
          1.32532164e-001, 3.14028144e-001, 1.25488505e-001, 0., 0.,
          4.03598212e-002, 0., 2.13475078e-001, 1.54570907e-001,
          2.93946229e-002, 0., 1.06545560e-001, 9.16741788e-002,
          1.52908206e-001, 1.11909866e-001, 1.15771286e-001,
          1.08473636e-002, 2.97823083e-002, 2.05064133e-001,
          1.98953837e-001, 1.52497157e-001, 1.83856338e-001,
          1.75375089e-001, 4.08872217e-002, 6.98929206e-002,
          1.26521468e-001, 1.97901055e-001 ]
      - [ 1.58904046e-001, 2.42638871e-001, 2.36747876e-001,
          1.32688880e-001, 0., 0., 0., 0., 1.31493926e-001,
          1.66957647e-001, 1.47086248e-001, 4.39369418e-002, 0.,
          2.99606789e-002, 0., 0., 5.81772551e-002, 0., 0.,
          1.25396967e-001, 1.33534387e-001, 9.38125104e-002,
          8.69737640e-002, 8.41757953e-002, 1.46029115e-001,
          1.11269683e-001, 0., 0., 2.19151914e-001, 1.44665480e-001,
          2.00315088e-001, 2.09232226e-001, 1.14670113e-001, 0.,
          1.04698032e-001, 0., 2.38192663e-001, 1.98714390e-001,
          8.39452520e-002, 1.42575011e-001, 1.88694626e-001,
          8.45823288e-002, 5.60731478e-002, 1.55982956e-001,
          8.74025747e-002, 7.57406652e-002, 9.90538299e-002,
          1.42341420e-001, 1.59349605e-001, 1.10558711e-001,
          1.09793648e-001, 8.64921734e-002, 1.37573212e-001,
          5.02988659e-002, 1.14554875e-001, 1.16820969e-001,
          1.30984858e-001, 2.14349762e-001, 1.63042858e-001,
          1.88376173e-001, 1.31047189e-001, 0., 4.86678220e-002,
          1.18965112e-001 ]
      - [ 2.74696022e-001, 1.62396297e-001, 1.18475609e-001,
          2.06184223e-001, 2.83830632e-002, 0., 0., 0., 2.07173437e-001,
          1.43050611e-001, 1.08724236e-001, 1.09593704e-001, 0., 0., 0.,
          2.65960936e-002, 0., 1.15914522e-002, 9.62024275e-003,
          1.24417089e-001, 6.15177043e-002, 8.93452391e-002,
          1.02545291e-001, 1.94673374e-001, 1.31007865e-001, 0., 0.,
          1.24753930e-001, 1.47990689e-001, 1.54318526e-001,
          1.94359958e-001, 2.42121652e-001, 1.93376228e-001,
          2.87562069e-002, 0., 5.92850931e-002, 2.24668503e-001,
          1.54243827e-001, 1.44100159e-001, 2.12858871e-001,
          7.40251094e-002, 0., 0., 9.40057412e-002, 2.03567386e-001,
          7.54802302e-002, 1.69405583e-002, 7.28659481e-002,
          1.39125898e-001, 1.42744213e-001, 2.30575353e-001, 0., 0., 0.,
          0., 1.87051687e-002, 2.09504515e-001, 2.02022344e-001,
          2.30697334e-001, 1.47778496e-001, 0., 0., 0., 5.06640878e-003 ]
      - [ 1.19874924e-001, 2.65556514e-001, 1.70798376e-001,
          1.85369834e-001, 0., 0., 0., 0., 6.77500591e-002,
          1.41059324e-001, 1.46427721e-001, 1.80482984e-001, 0., 0., 0.,
          0., 2.52625942e-001, 1.40956482e-002, 0., 7.05199689e-002,
          9.75163728e-002, 9.50270891e-002, 1.20857127e-001,
          1.57223105e-001, 2.01468676e-001, 3.59912626e-002,
          6.27860874e-002, 1.43183127e-001, 1.57736897e-001,
          1.07801571e-001, 1.09663807e-001, 1.24176510e-001, 0., 0., 0.,
          0., 1.24668494e-001, 2.88262606e-001, 2.33642519e-001, 0., 0.,
          0., 0., 0., 2.05569044e-001, 1.39370874e-001, 1.52448177e-001,
          0., 1.37576997e-001, 1.91605985e-001, 1.34277254e-001,
          1.01010174e-001, 0., 0., 0., 1.73007965e-001, 1.74129084e-001,
          1.87525868e-001, 1.79232478e-001, 1.10497795e-001,
          1.37909070e-001, 5.37653938e-002, 1.33535430e-001,
          1.20090410e-001 ]
      - [ 1.51253283e-001, 1.36629254e-001, 1.30728185e-001,
          1.54401734e-001, 1.27996162e-001, 7.94701800e-002,
          1.10454805e-001, 2.10559949e-001, 5.25227152e-002, 0., 0., 0.,
          1.98356658e-001, 1.03291936e-001, 7.70239681e-002,
          1.78577721e-001, 0., 0., 0., 1.26847476e-001, 1.34890422e-001,
          1.27449006e-001, 1.67479947e-001, 1.56968206e-001, 0., 0., 0.,
          1.26308575e-001, 1.75115496e-001, 1.56357393e-001,
          1.93004683e-001, 2.19170585e-001, 0., 0., 0., 0.,
          1.69394955e-001, 2.04996660e-001, 1.98675722e-001,
          1.86715767e-001, 0., 0., 0., 7.53220320e-002, 1.02533557e-001,
          1.94006160e-001, 1.56568840e-001, 1.28086120e-001,
          1.47812188e-001, 1.40716180e-001, 1.42498523e-001,
          1.85381234e-001, 3.62241454e-002, 0., 0., 1.15388855e-001,
          1.14434466e-001, 2.29158074e-001, 1.19234085e-001,
          2.39900231e-001, 0., 0., 0., 0. ]
      - [ 2.97334343e-001, 1.86000139e-001, 1.61496803e-001,
          8.99214000e-002, 0., 0., 0., 0., 2.38496646e-001,
          7.64502957e-002, 0., 0., 0., 0., 3.16616632e-002, 0.,
          3.14048320e-001, 1.33327404e-002, 0., 4.77728993e-002, 0., 0.,
          0., 5.65717965e-002, 3.00081611e-001, 9.00572166e-002,
          1.09007657e-001, 9.14976001e-002, 4.03002426e-002,
          1.08633183e-001, 1.19040243e-001, 9.54838470e-002,
          4.44623344e-002, 0., 0., 0., 1.36974514e-001, 1.57293394e-001,
          2.15018794e-001, 2.37930670e-001, 4.27934714e-002,
          9.12259072e-002, 7.68474042e-002, 9.45520997e-002,
          7.50869513e-002, 0., 9.08426866e-002, 2.11762562e-001,
          2.05289543e-001, 2.46255979e-001, 2.24748459e-002, 0., 0., 0.,
          1.93605945e-002, 1.79670855e-001, 2.35714123e-001,
          1.84960395e-001, 1.19725436e-001, 9.76612866e-002,
          1.37699902e-001, 8.86403099e-002, 0., 1.05931215e-001 ]
      - [ 7.08558708e-002, 2.61702091e-001, 2.30472490e-001,
          1.33898556e-001, 1.01375483e-001, 8.61019567e-002,
          1.37146199e-002, 0., 0., 2.04679742e-001, 1.46857709e-001, 0.,
          0., 0., 0., 0., 1.37434214e-001, 3.66538623e-003, 0.,
          1.44011930e-001, 9.71928462e-002, 1.08099893e-001,
          1.22039936e-001, 0., 1.39229819e-001, 1.47482485e-001,
          3.02516613e-002, 0., 1.89128205e-001, 2.42750615e-001,
          1.98165208e-001, 1.21953584e-001, 1.31464243e-001,
          9.73412767e-002, 1.24706134e-001, 1.16365366e-001,
          1.10580474e-001, 1.29813358e-001, 1.68384001e-001,
          2.63899386e-001, 1.06770890e-002, 0., 1.20963104e-001,
          2.37712339e-002, 3.17318849e-002, 8.48711953e-002,
          1.62513152e-001, 9.27065238e-002, 1.86110795e-001,
          1.40389144e-001, 1.21949621e-001, 1.16514593e-001, 0., 0.,
          1.65536236e-002, 1.83143243e-001, 1.36005893e-001,
          2.41208404e-001, 1.22312486e-001, 1.64334238e-001,
          1.65012479e-001, 0., 0., 6.00983091e-002 ]
      - [ 2.77477741e-001, 1.94548011e-001, 1.28119946e-001,
          1.20036907e-001, 1.16784297e-001, 0., 0., 7.44595677e-002, 0.,
          2.83431083e-001, 0., 0., 0., 0., 0., 0., 1.37104109e-001, 0.,
          1.38277367e-001, 6.97279945e-002, 9.32993069e-002,
          8.70456249e-002, 4.81312908e-002, 1.13610052e-001,
          2.33169243e-001, 7.58545706e-003, 0., 9.16986763e-002,
          1.55831605e-001, 1.52352348e-001, 1.87922254e-001,
          2.21638948e-001, 1.50460809e-001, 0., 0., 7.30574057e-002,
          1.39970288e-001, 1.25216097e-001, 1.74154565e-001,
          2.45144099e-001, 0., 1.00269087e-001, 8.43015686e-002,
          1.69516113e-002, 0., 8.96402970e-002, 6.63471073e-002,
          1.94762975e-001, 1.94196448e-001, 1.76627263e-001,
          1.57110140e-001, 0., 0., 0., 2.77068242e-002, 3.90218012e-002,
          2.57517248e-001, 1.72734842e-001, 2.25162655e-001,
          1.46670714e-001, 0., 0., 5.28304745e-003, 0. ]
      - [ 2.02429444e-001, 1.72201246e-001, 1.27331734e-001,
          1.00476854e-001, 1.08452685e-001, 1.53134957e-001, 0.,
          1.49854302e-001, 1.59104228e-001, 4.61453944e-002,
          5.11820726e-002, 1.33982198e-002, 0., 1.48952961e-001,
          8.49054828e-002, 1.32533029e-001, 0., 0., 0., 0.,
          1.49890274e-001, 1.26895621e-001, 1.21294543e-001,
          1.95969269e-001, 0., 0., 0., 0., 1.83004260e-001,
          1.75623998e-001, 1.93406865e-001, 2.33454823e-001,
          1.30351871e-001, 8.27932507e-002, 0., 0., 2.02107668e-001,
          2.10559174e-001, 1.62669986e-001, 1.60501674e-001,
          1.42127037e-001, 0., 0., 0., 1.91338614e-001, 1.60202786e-001,
          6.09396510e-002, 9.25714150e-002, 1.88620090e-001,
          1.53789610e-001, 1.01179115e-001, 1.67622954e-001, 0., 0., 0.,
          0., 2.51378775e-001, 2.00308278e-001, 1.28663659e-001,
          2.00173378e-001, 8.21477175e-002, 0., 0., 0. ]
      - [ 3.45844239e-001, 1.48356616e-001, 1.13047965e-001,
          7.61759430e-002, 9.02620703e-002, 1.30766794e-001, 0., 0.,
          2.03907520e-001, 9.85074043e-002, 8.54924396e-002, 0., 0., 0.,
          9.60000046e-003, 1.31790936e-001, 2.37253249e-001,
          1.66276880e-002, 0., 1.28549501e-001, 8.56058523e-002,
          5.85673600e-002, 1.00093253e-001, 7.20246658e-002,
          2.05379874e-001, 0., 0., 1.53228179e-001, 1.52046651e-001,
          1.23838678e-001, 1.78560495e-001, 1.95031404e-001,
          6.09721504e-002, 0., 0., 0., 0., 4.80575003e-002,
          3.49216759e-001, 1.95017993e-001, 0., 0., 0., 0.,
          7.48604462e-002, 9.41781700e-002, 1.18345715e-001,
          1.47921264e-001, 1.83976099e-001, 1.65606260e-001,
          1.15245707e-001, 0., 0., 0., 4.20947298e-002, 1.46208793e-001,
          2.00068891e-001, 2.19120339e-001, 2.46213630e-001, 0., 0., 0.,
          0., 5.16975857e-002 ]
      - [ 2.66248435e-001, 2.41953298e-001, 1.44599646e-001,
          1.15971468e-001, 0., 0., 0., 0., 0., 7.98380375e-002, 0., 0.,
          0., 0., 5.30604459e-002, 2.33466089e-001, 1.81548253e-001,
          4.00939882e-002, 0., 0., 6.65242299e-002, 4.10923176e-002,
          6.91710413e-002, 1.28372446e-001, 9.98967141e-002,
          5.83018102e-002, 0., 4.53313962e-002, 1.59249783e-001,
          1.54530615e-001, 1.22821987e-001, 3.38500977e-001, 0., 0., 0.,
          3.16105820e-002, 1.14973314e-001, 1.46525800e-001,
          1.68204889e-001, 3.89433444e-001, 8.22601393e-002, 0., 0., 0.,
          6.20529875e-002, 9.83334184e-002, 0., 0., 1.42684534e-001,
          7.20315427e-002, 6.72606230e-002, 7.18533099e-002, 0., 0.,
          5.69426492e-002, 2.77888358e-001, 2.73486406e-001,
          1.44981131e-001, 1.40419662e-001, 1.88319370e-001,
          3.61151099e-002, 0., 7.79661983e-002, 7.88964331e-002 ]
      - [ 1.71784267e-001, 1.68173626e-001, 1.86340854e-001,
          1.71772897e-001, 0., 0., 0., 0., 2.29578540e-001,
          1.47803992e-001, 4.70827147e-002, 1.18904792e-001, 0., 0., 0.,
          1.76458061e-001, 1.98849484e-001, 4.19663489e-002, 0.,
          1.24985322e-001, 1.34569809e-001, 1.00510955e-001,
          1.03368968e-001, 1.39436975e-001, 1.67880669e-001,
          3.47719863e-002, 0., 1.78635702e-001, 1.45738259e-001,
          1.36654168e-001, 1.48421109e-001, 1.69524521e-001, 0., 0., 0.,
          0., 1.21540889e-001, 2.11867169e-001, 2.30083048e-001,
          1.81226477e-001, 1.02354269e-002, 0., 0., 0., 6.65919855e-002,
          1.20624729e-001, 1.99451521e-001, 1.65201128e-001,
          8.47413018e-002, 1.00528412e-001, 8.81253034e-002,
          2.11534038e-001, 0., 0., 0., 1.74358487e-001, 1.15393080e-001,
          1.83517247e-001, 1.84531420e-001, 2.01171011e-001,
          3.34134512e-002, 3.76987383e-002, 1.39044330e-001,
          1.16169587e-001 ]
      - [ 1.69974953e-001, 2.12967932e-001, 2.26160824e-001, 0., 0., 0.,
          0., 0., 1.29242405e-001, 1.77541941e-001, 1.06613435e-001,
          9.85572338e-002, 0., 0., 0., 0., 1.64783686e-001,
          5.07200360e-002, 0., 0., 1.22532628e-001, 1.55495554e-001,
          1.47047892e-001, 1.70300856e-001, 6.49010763e-002,
          1.43511975e-002, 0., 0., 1.81588337e-001, 2.11440101e-001,
          1.49891540e-001, 1.67913184e-001, 0., 0., 0., 1.28840327e-001,
          8.64179954e-002, 1.30635500e-001, 3.21882248e-001,
          1.37171611e-001, 0., 0., 0., 0., 8.93975943e-002,
          1.61081120e-001, 1.90478861e-001, 1.39603809e-001,
          2.35161018e-002, 1.52132645e-001, 8.61020312e-002,
          1.84479058e-001, 1.76611602e-001, 2.71302257e-002,
          5.46435080e-002, 1.42951578e-001, 1.39258295e-001,
          1.76209286e-001, 1.61529109e-001, 2.17700616e-001,
          1.47287130e-001, 1.75066218e-001, 5.44353761e-002, 0. ]
      - [ 2.54659474e-001, 1.43572628e-001, 2.18029290e-001,
          1.28607973e-001, 5.30539602e-002, 8.18432495e-003, 0., 0.,
          1.12244850e-002, 5.96674494e-002, 8.31182599e-002,
          5.04244342e-002, 1.09082825e-001, 0., 0., 0., 2.12584585e-001,
          8.20740983e-002, 4.27609198e-002, 0., 1.61094248e-001,
          1.09247468e-001, 1.29620612e-001, 1.40178844e-001,
          8.56616125e-002, 9.73643288e-002, 1.41879842e-001,
          1.09660208e-001, 1.79611042e-001, 2.07037523e-001,
          1.65867388e-001, 1.56812325e-001, 5.27382642e-003, 0., 0., 0.,
          1.01023927e-001, 2.65311301e-001, 2.48005986e-001,
          1.01729907e-001, 0., 1.77458934e-002, 1.27055004e-001,
          1.50241420e-001, 0., 6.89684749e-002, 8.84871185e-002,
          6.10625520e-002, 7.95039013e-002, 2.10790157e-001,
          1.32778868e-001, 1.30081668e-001, 3.31579596e-002, 0.,
          7.99945965e-002, 1.75016031e-001, 1.24212682e-001,
          2.73628742e-001, 1.71615705e-001, 1.96052939e-001,
          8.17619860e-002, 0., 0., 1.48698106e-001 ]
      - [ 2.14967862e-001, 1.86269939e-001, 1.55729651e-001,
          1.74513385e-001, 1.24620639e-001, 0., 0., 0., 1.29084662e-001,
          2.13827103e-001, 1.19824991e-001, 1.48321882e-001, 0., 0., 0.,
          1.46372765e-002, 1.08816944e-001, 0., 0., 1.50621966e-001,
          1.58194885e-001, 1.30477116e-001, 6.71541616e-002,
          1.22229271e-001, 1.22157820e-001, 0., 0., 0., 1.83939368e-001,
          2.23302081e-001, 1.53755441e-001, 1.59175679e-001,
          1.44463241e-001, 1.12165883e-002, 3.92807648e-002,
          4.72858287e-002, 2.22221985e-001, 1.70176104e-001,
          1.21634386e-001, 2.11564898e-001, 7.79969096e-002,
          1.36318831e-002, 0., 0., 1.98667303e-001, 1.62940517e-001,
          1.58626512e-002, 9.74205956e-002, 0., 2.44390294e-001,
          1.50247931e-001, 1.27601922e-001, 0., 0., 6.14357833e-003,
          4.89183627e-002, 1.69867128e-001, 2.82271892e-001,
          1.30447954e-001, 1.87106207e-001, 0., 0., 0., 0. ]
      - [ 1.92061841e-001, 1.75053626e-001, 1.23157486e-001,
          2.04284921e-001, 9.25339311e-002, 6.24360554e-002,
          7.71516338e-002, 6.89598843e-002, 5.84620088e-002,
          5.31354025e-002, 4.07836325e-002, 9.79100317e-002,
          2.30072215e-002, 1.22934006e-001, 2.32144296e-002,
          1.21084616e-001, 0., 0., 0., 0., 1.32258579e-001,
          1.29175901e-001, 1.51228860e-001, 1.22834675e-001,
          1.15763322e-001, 3.19830999e-002, 0., 3.17313857e-002,
          1.61614373e-001, 2.14334339e-001, 2.51016080e-001,
          1.94947094e-001, 0., 0., 0., 1.25004545e-001, 2.16677338e-001,
          1.96549758e-001, 1.41233489e-001, 1.74236253e-001,
          1.50095955e-001, 1.24265254e-001, 0., 1.23761177e-001,
          7.62365684e-002, 1.37336314e-001, 1.19485870e-001,
          1.13051645e-001, 1.13134205e-001, 1.61653683e-001,
          1.29815221e-001, 1.79740965e-001, 0., 0., 4.59815934e-002,
          1.16011307e-001, 1.99980557e-001, 1.45821527e-001,
          2.47756794e-001, 2.18376368e-001, 0., 0., 0., 1.13599487e-001 ]
      - [ 2.20077381e-001, 3.08046639e-001, 0., 0., 0., 0., 0., 0.,
          1.12125345e-001, 0., 0., 0., 0., 0., 0., 5.20249419e-002,
          2.41595879e-001, 4.15673014e-003, 0., 0., 0., 1.34408265e-001,
          8.37740749e-002, 8.49540085e-002, 1.29795581e-001,
          1.41330913e-001, 1.04118809e-001, 0., 1.38955191e-001,
          1.71947360e-001, 1.55595139e-001, 1.89094245e-001, 0.,
          1.07533149e-001, 1.38166845e-001, 0., 1.39332414e-001,
          9.42701474e-002, 2.63783514e-001, 1.94536641e-001,
          2.07566336e-001, 9.74242836e-002, 1.13106154e-001, 0., 0.,
          7.96155259e-002, 8.99005160e-002, 7.22570494e-002,
          1.28489763e-001, 1.40894741e-001, 0., 9.63531137e-002,
          1.36162922e-001, 0., 6.74354210e-002, 2.04054087e-001,
          2.64499456e-001, 1.59610897e-001, 1.82904676e-001,
          1.71621203e-001, 1.39798328e-001, 4.42565568e-002,
          8.79848972e-002, 2.11793602e-001 ]
      - [ 1.70084193e-001, 1.39400482e-001, 1.18813977e-001,
          1.81121722e-001, 1.28841788e-001, 0., 0., 0., 1.51914001e-001,
          1.23406097e-001, 1.05219409e-001, 1.05650879e-001,
          1.29982993e-001, 0., 7.14914948e-002, 1.77182451e-001,
          1.46602854e-001, 9.36495811e-002, 6.60766289e-002,
          1.42817453e-001, 1.63308412e-001, 1.44288644e-001,
          8.90584216e-002, 8.31256583e-002, 7.29249418e-002,
          7.31961280e-002, 5.96677735e-002, 0., 2.58791655e-001,
          1.34853885e-001, 1.43194705e-001, 9.47918221e-002,
          1.27404854e-001, 0., 0., 0., 1.91965938e-001, 1.85288921e-001,
          2.51065075e-001, 1.28706291e-001, 1.25843674e-001,
          3.59626091e-003, 0., 0., 1.26756638e-001, 1.66845590e-001,
          1.17023215e-001, 1.27810404e-001, 1.48700178e-001,
          1.21226050e-001, 1.55594438e-001, 1.16804145e-001, 0., 0., 0.,
          2.49426179e-002, 2.57571280e-001, 1.73872113e-001,
          1.58082515e-001, 2.24062219e-001, 0., 0., 0., 1.55198768e-001 ]
      - [ 1.75833493e-001, 1.79704636e-001, 2.12358966e-001,
          9.99500751e-002, 0., 0., 5.30520789e-002, 0., 2.10634768e-001,
          1.20515317e-001, 1.04276985e-001, 0., 9.53392461e-002, 0.,
          9.98885743e-003, 1.69567749e-001, 1.64629877e-001,
          2.65470818e-002, 5.83902560e-002, 1.43749833e-001, 0.,
          9.57607478e-002, 5.95158152e-002, 1.53846264e-001,
          1.73695624e-001, 0., 0., 0., 1.70675009e-001, 1.25523135e-001,
          1.85196027e-001, 2.08465919e-001, 1.47721618e-001, 0., 0.,
          1.46822467e-001, 1.09080598e-001, 1.71400532e-001,
          1.66270629e-001, 2.44154006e-001, 2.64317784e-002,
          6.68994337e-002, 4.21935283e-002, 1.70400470e-001,
          9.67898816e-002, 8.22762996e-002, 4.70715128e-002,
          1.68735102e-001, 1.70780316e-001, 1.85617730e-001,
          1.88160628e-001, 0., 0., 0., 4.92790639e-002, 2.49665938e-002,
          2.87006080e-001, 1.63574845e-001, 1.45507365e-001,
          2.07366690e-001, 0., 0., 0., 0. ]
      - [ 1.75371557e-001, 3.05657834e-001, 1.79734528e-001, 0., 0., 0.,
          0., 0., 8.38871971e-002, 1.70155898e-001, 3.68886963e-002, 0.,
          0., 0., 0., 0., 1.93274498e-001, 2.96657737e-002, 0.,
          1.25104114e-001, 8.36379603e-002, 9.23651457e-002,
          7.25913271e-002, 8.45548064e-002, 2.44524822e-001,
          5.78505173e-002, 0., 0., 2.06779972e-001, 1.55066878e-001,
          1.74688280e-001, 2.15124294e-001, 0., 0., 5.59642427e-002,
          1.32066414e-001, 1.33367926e-001, 1.40200734e-001,
          1.57330915e-001, 2.33699083e-001, 1.64173663e-001,
          7.20935613e-002, 8.33113939e-002, 1.12191215e-001, 0.,
          1.22236505e-001, 1.33731037e-001, 0., 9.39871073e-002,
          1.22021273e-001, 1.49062812e-001, 1.71406478e-001,
          2.83838939e-002, 0., 1.55733734e-001, 1.60264209e-001,
          1.31540954e-001, 1.69580430e-001, 2.23643273e-001,
          2.09661052e-001, 0., 0., 4.14208025e-002, 1.66998118e-001 ]
      - [ 1.27509251e-001, 2.78309613e-001, 1.62608206e-001,
          1.85751125e-001, 0., 0., 0., 0., 0., 1.39231250e-001,
          8.58020931e-002, 5.99924140e-002, 1.51555449e-001,
          9.81139764e-002, 0., 1.25982035e-002, 9.49177612e-003, 0.,
          2.12934464e-002, 1.17425278e-001, 1.43653899e-001,
          9.34476331e-002, 1.34135678e-001, 9.42408815e-002,
          1.87180221e-001, 0., 7.15013370e-002, 1.27445161e-001,
          1.64795935e-001, 1.61734268e-001, 1.95524871e-001,
          2.35190660e-001, 7.44735152e-002, 0., 3.15877683e-002, 0.,
          1.74244881e-001, 1.92697778e-001, 2.20972151e-001,
          1.88991591e-001, 1.04043126e-001, 5.10851517e-002,
          8.88377279e-002, 1.17356792e-001, 1.21798523e-001, 0.,
          7.98372552e-002, 1.21098250e-001, 1.47173703e-001,
          1.47777945e-001, 2.02663675e-001, 8.33926871e-002, 0., 0., 0.,
          1.69225149e-002, 2.22452551e-001, 1.73808813e-001,
          2.43058234e-001, 1.66644007e-001, 1.02335572e-001,
          6.03146888e-002, 0., 7.99469724e-002 ]
      - [ 2.55709112e-001, 1.28111720e-001, 1.16711132e-001,
          1.08116880e-001, 2.23345444e-001, 1.11678997e-002,
          5.98653499e-003, 0., 1.77322924e-001, 8.49981308e-002,
          9.94782522e-002, 1.39927775e-001, 0., 0., 1.62616242e-002, 0.,
          1.82364449e-001, 1.63439643e-002, 6.63244128e-002,
          1.14862204e-001, 6.65188506e-002, 8.66559744e-002,
          1.48497969e-001, 1.29328012e-001, 1.28435910e-001,
          2.36172341e-002, 0., 0., 1.79926351e-001, 2.30766848e-001,
          1.79089591e-001, 1.27788290e-001, 1.24376975e-001,
          3.69580202e-002, 0., 1.49883643e-001, 2.07763001e-001,
          1.79965764e-001, 2.23975569e-001, 1.28095061e-001, 0., 0.,
          1.26246661e-002, 0., 2.21161768e-001, 1.09733373e-001,
          1.16914503e-001, 0., 1.20144282e-002, 1.68472216e-001,
          2.38763034e-001, 0., 7.11922999e-003, 0., 0., 0.,
          1.56124100e-001, 2.71601170e-001, 2.41884843e-001,
          1.46396652e-001, 4.06081341e-002, 0., 0., 0. ]
      - [ 2.31683284e-001, 2.39945635e-001, 1.17257506e-001,
          8.39771852e-002, 1.33167952e-001, 1.83564257e-002,
          1.36187775e-002, 7.15557560e-002, 2.13977665e-001,
          1.54698730e-001, 1.10426001e-001, 0., 0., 0., 7.74453348e-003,
          1.36982515e-001, 1.05546489e-001, 7.74453348e-003,
          8.83235261e-002, 1.03846908e-001, 0., 9.36482623e-002,
          5.25914095e-002, 1.35647550e-001, 2.17385799e-001, 0., 0., 0.,
          1.89040646e-001, 1.64036408e-001, 1.27708957e-001,
          2.79422402e-001, 1.39045700e-001, 0., 0., 0., 1.81875750e-001,
          1.20833404e-001, 1.64124504e-001, 2.54216522e-001,
          1.11944191e-001, 0., 0., 5.50598539e-002, 1.13782227e-001,
          8.87710974e-002, 4.13238034e-002, 2.02482074e-001,
          1.81295872e-001, 1.78300768e-001, 1.01662777e-001, 0., 0., 0.,
          0., 0., 2.68633217e-001, 2.03249097e-001, 1.75263658e-001,
          1.36261642e-001, 0., 0., 0., 6.63334280e-002 ]
      - [ 2.41215900e-001, 1.53643981e-001, 1.45417467e-001,
          8.34140405e-002, 1.74762890e-001, 2.53794864e-002, 0., 0.,
          1.33147344e-001, 1.09263137e-001, 6.12002946e-002, 0.,
          1.47636935e-001, 9.66556445e-002, 0., 0., 1.59394011e-001, 0.,
          0., 0., 1.41705960e-001, 9.49042663e-002, 1.62750795e-001,
          1.16838686e-001, 1.61296219e-001, 0., 0., 0., 2.08792150e-001,
          1.51078925e-001, 1.52579442e-001, 1.90978900e-001, 0., 0.,
          2.80958097e-002, 1.90844193e-001, 1.21609658e-001,
          1.89238742e-001, 1.77484035e-001, 1.63458750e-001,
          1.43335849e-001, 1.27342403e-001, 1.01586722e-001,
          7.00065419e-002, 7.74194300e-002, 1.66418523e-001,
          1.28792569e-001, 1.36581317e-001, 1.13689348e-001,
          1.48773804e-001, 1.64065704e-001, 2.04825267e-001,
          6.95372047e-003, 0., 0., 1.00491427e-001, 1.07328825e-001,
          2.09132135e-001, 1.96407244e-001, 2.37649500e-001,
          5.53392693e-002, 0., 7.54890777e-003, 1.14440471e-001 ]
      - [ 1.84365168e-001, 2.62483895e-001, 2.00835779e-001, 0., 0., 0.,
          0., 0., 1.21912412e-001, 2.17042238e-001, 2.30152532e-002, 0.,
          0., 0., 3.14414948e-002, 0., 1.76074818e-001, 8.84706900e-003,
          4.98365723e-002, 9.25941393e-002, 0., 8.98961499e-002,
          5.33466637e-002, 1.33945063e-001, 2.36946017e-001,
          2.61423811e-002, 4.31751125e-002, 0., 1.78328648e-001,
          6.43339753e-002, 1.37381762e-001, 2.35749155e-001,
          1.15275137e-001, 2.79768873e-002, 9.65853482e-002,
          9.55447853e-002, 9.35307890e-002, 1.31662861e-001,
          2.61864424e-001, 1.86203852e-001, 0., 1.19702481e-001,
          1.25553086e-001, 0., 7.94334933e-002, 8.50233287e-002,
          1.69570744e-001, 1.04369700e-001, 1.31136298e-001,
          2.90236682e-001, 1.28420278e-001, 0., 0., 0., 0.,
          1.26428187e-001, 1.89148337e-001, 2.78635293e-001,
          1.52795509e-001, 1.48674354e-001, 9.97379720e-002,
          7.30885342e-002, 0., 0. ]
      - [ 2.12881342e-001, 2.17237443e-001, 1.87030330e-001,
          1.23169817e-001, 0., 0., 0., 6.41636252e-002, 1.87133223e-001,
          1.74642429e-001, 1.16664588e-001, 0., 0., 0., 5.30863255e-002,
          4.49984446e-002, 1.61786675e-001, 2.83227768e-002, 0., 0.,
          8.08066949e-002, 1.52920410e-001, 1.23895638e-001,
          1.30699247e-001, 1.76667064e-001, 3.00886594e-002, 0., 0.,
          1.60430640e-001, 1.64180607e-001, 2.15004519e-001,
          1.47296295e-001, 8.23119730e-002, 7.60823563e-002,
          1.04125850e-001, 1.67825699e-001, 1.61326513e-001,
          1.16195664e-001, 1.96480215e-001, 1.76081002e-001,
          6.82029054e-002, 1.28311053e-001, 0., 1.32555932e-001,
          9.04717445e-002, 1.26211673e-001, 1.70408249e-001,
          6.71468228e-002, 8.29872042e-002, 0., 1.17752232e-001,
          1.43987104e-001, 1.25840202e-001, 1.23358676e-002,
          1.31608814e-001, 1.57669410e-001, 1.61444902e-001,
          1.49556622e-001, 1.44916803e-001, 1.78884760e-001,
          1.26413614e-001, 2.75970902e-002, 1.27046540e-001,
          1.90175474e-001 ]
      - [ 1.17654413e-001, 2.92163283e-001, 1.36491567e-001,
          8.29428434e-002, 1.18924432e-001, 0., 0., 0., 1.60564080e-001,
          1.43098503e-001, 7.94582814e-002, 5.86567894e-002,
          1.20621413e-001, 0., 0., 1.46382591e-002, 1.71434119e-001, 0.,
          0., 0., 1.80903062e-001, 1.30430102e-001, 8.22879001e-002,
          1.31742954e-001, 1.71039656e-001, 1.90702304e-002, 0.,
          1.22621074e-001, 1.88033164e-001, 1.75488949e-001,
          1.64852113e-001, 1.70491919e-001, 0., 0., 0., 0.,
          1.14088714e-001, 2.76655287e-001, 2.40518197e-001,
          8.62621590e-002, 0., 0., 0., 0., 0., 2.66383022e-001,
          8.28545839e-002, 0., 1.07333332e-001, 7.94062167e-002,
          1.10922433e-001, 2.30833799e-001, 3.75878140e-002, 0., 0.,
          1.68188363e-001, 1.37929350e-001, 1.61249027e-001,
          1.57025516e-001, 2.62118399e-001, 2.22232677e-002,
          3.22246924e-002, 1.85361922e-001, 0. ]
      - [ 2.82453358e-001, 2.45780453e-001, 1.62953287e-001,
          1.70151219e-001, 0., 0., 0., 9.96119976e-002, 1.24348834e-001,
          3.62529680e-002, 1.03548288e-001, 3.28990705e-002,
          7.76551738e-002, 0., 0., 2.24515740e-002, 1.43249929e-001,
          7.65488809e-003, 0., 0., 0., 6.94236457e-002, 1.52536914e-001,
          8.59334990e-002, 0., 0., 0., 1.42503858e-001, 1.32519767e-001,
          1.82938904e-001, 2.58448422e-001, 1.96379110e-001, 0., 0., 0.,
          7.97230937e-003, 1.92515507e-001, 1.87029511e-001,
          2.29295269e-001, 2.70361096e-001, 0., 0., 0., 0.,
          1.22058667e-001, 1.24355949e-001, 1.46216303e-001, 0.,
          9.53802019e-002, 8.09541047e-002, 9.21219140e-002,
          8.92021433e-002, 5.18963151e-002, 1.39787197e-001,
          5.91062978e-002, 1.46802530e-001, 2.78982282e-001,
          1.45771801e-001, 1.49791956e-001, 2.34878764e-001,
          4.48315870e-003, 0., 0., 1.44649193e-001 ]
      - [ 1.22828044e-001, 2.28794724e-001, 1.39275700e-001,
          2.32090950e-001, 0., 0., 0., 0., 0., 0., 8.02299455e-002,
          1.17675930e-001, 8.56946930e-002, 3.85754667e-002,
          2.70965882e-002, 0., 1.23498827e-001, 0., 4.92199399e-002,
          5.64573221e-002, 2.19261900e-001, 8.50513205e-002,
          1.02694415e-001, 0., 8.43669847e-002, 1.27779454e-001,
          5.82654066e-002, 1.77280784e-001, 1.68331683e-001,
          2.32975587e-001, 1.52608827e-001, 1.87958717e-001, 0., 0.,
          4.05105278e-002, 1.85231805e-001, 1.35052130e-001,
          2.43930116e-001, 1.58087045e-001, 8.46738517e-002,
          6.93642646e-002, 3.70763578e-002, 1.43342406e-001,
          2.22320125e-001, 1.18613824e-001, 0., 7.01519772e-002, 0., 0.,
          1.64553538e-001, 1.82420224e-001, 1.92993462e-001,
          1.26641870e-001, 0., 0., 1.55120343e-001, 1.19051911e-001,
          1.63626000e-001, 2.08292350e-001, 2.79856801e-001,
          3.44297774e-002, 0., 0., 2.62796767e-002 ]
      - [ 8.23517442e-002, 1.44190907e-001, 2.90312618e-001, 0., 0., 0.,
          0., 1.66621491e-001, 0., 7.65538365e-002, 1.47253022e-001,
          1.55418009e-001, 0., 0., 5.88442720e-002, 1.41960427e-001,
          1.07966237e-001, 3.55536863e-003, 0., 1.31520137e-001,
          1.16620041e-001, 1.17168032e-001, 9.01493952e-002,
          1.93527386e-001, 1.27217636e-001, 2.02096943e-002, 0., 0.,
          2.19994068e-001, 1.60590291e-001, 1.23294823e-001,
          2.56591141e-001, 7.99864233e-002, 0., 0., 1.28065169e-001,
          1.27434000e-001, 1.87015966e-001, 1.56487018e-001,
          2.09010765e-001, 4.45680581e-002, 4.30079699e-002,
          1.84805691e-002, 1.55213088e-001, 1.08291909e-001,
          9.31457058e-002, 1.04977079e-001, 1.54533669e-001,
          1.17692761e-001, 1.24963567e-001, 1.82598874e-001,
          1.86896712e-001, 0., 0., 0., 1.78712755e-001, 1.36426702e-001,
          1.94223002e-001, 1.85571864e-001, 2.26766348e-001, 0., 0., 0.,
          1.17221825e-001 ]
      - [ 1.44662574e-001, 2.76570052e-001, 1.73833430e-001,
          1.11641772e-001, 0., 0., 0., 3.25764567e-002, 1.74544901e-001,
          1.83336601e-001, 1.63662165e-001, 0., 0., 0., 0., 0.,
          1.31306961e-001, 2.38122195e-002, 5.30884191e-002,
          1.16888411e-001, 1.89191490e-001, 8.14758986e-002,
          8.48747268e-002, 5.54114282e-002, 1.50178954e-001,
          3.02468054e-002, 0., 5.03528602e-002, 2.22625166e-001,
          1.75794110e-001, 1.40498802e-001, 1.43461868e-001,
          1.09051012e-001, 7.65069500e-002, 0., 1.13847286e-001,
          1.53852895e-001, 1.25289246e-001, 2.47952282e-001,
          1.79368883e-001, 0., 0., 3.96928191e-002, 1.34125099e-001,
          9.05665159e-002, 8.59134272e-002, 1.38492197e-001,
          1.78403974e-001, 0., 1.48233712e-001, 2.51556247e-001,
          1.31175429e-001, 1.15167154e-002, 0., 0., 6.74779564e-002,
          1.13037266e-001, 2.51856387e-001, 2.18436420e-001,
          1.88392371e-001, 1.29679263e-001, 3.04128081e-002, 0., 0. ]
      - [ 2.13151738e-001, 1.83779269e-001, 1.13179676e-001,
          1.75284877e-001, 9.92771611e-002, 0., 0., 0., 1.95647359e-001,
          1.64775535e-001, 9.18725282e-002, 1.12759382e-001,
          8.03928673e-002, 0., 3.84071446e-003, 6.80784956e-002,
          1.11830652e-001, 0., 0., 6.34010434e-002, 1.71583712e-001,
          9.51895043e-002, 1.21361256e-001, 2.27389172e-001, 0.,
          9.40779038e-003, 0., 1.60344854e-001, 1.68617219e-001,
          1.34801775e-001, 1.44299194e-001, 2.30216175e-001,
          3.83580811e-002, 0., 6.54388145e-002, 9.25651342e-002,
          1.20605275e-001, 1.36557415e-001, 3.20309401e-001, 0., 0.,
          1.97976287e-002, 0., 0., 9.04517695e-002, 1.53051108e-001,
          2.54722089e-001, 0., 5.88554367e-002, 1.13894105e-001,
          9.21842977e-002, 2.10503921e-001, 0., 0., 4.65748049e-002,
          1.63190514e-001, 1.07150830e-001, 1.60458848e-001,
          1.74477175e-001, 2.22678065e-001, 4.40871418e-002, 0.,
          9.63559672e-002, 1.68798253e-001 ]
      - [ 2.08525151e-001, 1.29963666e-001, 2.88004935e-001,
          1.46316558e-001, 0., 0., 0., 3.75376865e-002, 1.38288409e-001,
          1.47873417e-001, 1.80194303e-001, 0., 0., 0., 0., 0.,
          1.74930200e-001, 1.29989132e-001, 0., 0., 0., 0.,
          5.43146916e-002, 1.34691313e-001, 2.19636038e-001,
          1.32786006e-001, 1.71208292e-001, 7.26395994e-002,
          9.22026411e-002, 9.57492366e-002, 1.47083774e-001,
          1.81455806e-001, 8.67723953e-003, 0., 0., 1.49494156e-001,
          2.08853230e-001, 1.53030977e-001, 2.20449135e-001,
          1.31866395e-001, 5.32810204e-002, 6.89854920e-002,
          5.23698255e-002, 1.76730588e-001, 1.80046812e-001,
          1.06272623e-001, 8.71769041e-002, 1.32883713e-001,
          1.11288145e-001, 2.41268918e-001, 5.81206530e-002, 0., 0., 0.,
          6.14540949e-002, 1.65944993e-001, 1.61479518e-001,
          1.59057170e-001, 1.82375744e-001, 1.19191170e-001,
          6.94886595e-002, 9.66466963e-002, 1.02103829e-001,
          1.56224638e-001 ]
      - [ 2.70726889e-001, 1.68740094e-001, 1.23780586e-001,
          1.27793074e-001, 0., 0., 0., 0., 2.81984717e-001,
          1.10450573e-001, 0., 3.54367010e-002, 0., 0., 0.,
          1.42042369e-001, 1.50339305e-001, 4.27330397e-002, 0., 0., 0.,
          1.08570226e-001, 1.42951354e-001, 2.37511009e-001, 0., 0., 0.,
          0., 1.36963964e-001, 1.26938999e-001, 2.24179626e-001,
          2.33088210e-001, 1.41028762e-001, 0., 6.18748516e-002,
          1.28818035e-001, 5.74734583e-002, 1.13991357e-001,
          1.59567609e-001, 2.29711473e-001, 1.32624432e-001,
          1.00139752e-001, 8.44858140e-002, 7.11661056e-002, 0.,
          5.62969223e-002, 5.61102293e-002, 2.05082819e-001,
          1.62604645e-001, 2.06959039e-001, 9.95489359e-002,
          1.51602075e-001, 2.77206581e-002, 0., 1.58020500e-002,
          1.27205893e-001, 2.27318451e-001, 2.24893674e-001,
          1.75166950e-001, 1.57652006e-001, 0., 0., 2.69281622e-002, 0. ]
      - [ 2.81338811e-001, 1.89378336e-001, 1.44604817e-001,
          1.28079340e-001, 0., 0., 0., 0., 1.32913768e-001,
          9.33998004e-002, 0., 6.74653202e-002, 0., 0., 3.76430526e-002,
          9.90842506e-002, 1.81869805e-001, 1.46905323e-002,
          4.52424996e-002, 1.09326214e-001, 0., 4.94136885e-002, 0.,
          1.11892700e-001, 1.11457907e-001, 0., 0., 0., 1.89186767e-001,
          1.41730458e-001, 1.72527075e-001, 2.25829720e-001,
          1.34656012e-001, 9.25066024e-002, 0., 3.40101235e-002,
          1.55361012e-001, 2.23314315e-001, 2.15360537e-001,
          2.09843442e-001, 5.46117574e-002, 1.28215164e-001,
          1.64712444e-001, 8.43415782e-002, 7.15012774e-002,
          1.07712746e-001, 4.66689728e-002, 8.39875862e-002,
          1.93158135e-001, 1.31641328e-001, 1.25363544e-001,
          9.28046927e-002, 9.29837152e-002, 1.02474034e-001, 0.,
          1.03293844e-001, 3.10441226e-001, 1.54465348e-001,
          2.32563838e-001, 1.93028763e-001, 3.50573994e-002, 0.,
          2.64874157e-002, 0. ]
      - [ 2.04349324e-001, 2.75849521e-001, 1.06452599e-001,
          1.29905418e-001, 3.54384594e-002, 0., 0., 0., 1.23320810e-001,
          1.64373711e-001, 9.77827683e-002, 6.61807060e-002, 0., 0., 0.,
          0., 2.47414201e-001, 2.59531625e-002, 2.52617672e-002,
          6.32406250e-002, 0., 0., 1.04082622e-001, 1.86684117e-001,
          2.58536905e-001, 8.68562087e-002, 0., 1.26208112e-001,
          6.78201020e-002, 1.12435803e-001, 1.98905826e-001,
          1.57063127e-001, 0., 0., 0., 0., 1.97762594e-001,
          2.20254555e-001, 1.94711387e-001, 1.49315864e-001,
          1.44853266e-002, 1.10610919e-002, 9.37050208e-002,
          2.19765067e-001, 6.29470125e-002, 9.23678428e-002,
          1.01913564e-001, 1.36713997e-001, 1.45087376e-001,
          2.25403637e-001, 1.50019810e-001, 0., 0., 4.05183397e-002, 0.,
          1.12566091e-001, 2.27454349e-001, 1.98953032e-001,
          1.10119529e-001, 1.13532096e-001, 1.42474741e-001,
          7.75669515e-002, 0., 1.19934037e-001 ]
      - [ 2.62658805e-001, 1.40093550e-001, 1.65658757e-001,
          1.62677586e-001, 1.27029181e-001, 9.09327194e-002, 0., 0.,
          1.33180827e-001, 2.17184067e-001, 1.59798563e-001,
          9.12570581e-002, 0., 0., 0., 0., 1.08809851e-001, 0., 0.,
          1.18675649e-001, 1.59025073e-001, 1.03504285e-001,
          1.01612382e-001, 1.30810529e-001, 1.34531558e-001, 0.,
          2.22578086e-002, 1.20951526e-001, 1.71402410e-001,
          1.93213627e-001, 1.85091838e-001, 1.62118837e-001,
          9.88816172e-002, 1.22237146e-001, 1.00145228e-001,
          8.98984373e-002, 1.25145301e-001, 1.66982755e-001,
          2.00494915e-001, 1.81439683e-001, 4.41060588e-002,
          7.63624310e-002, 3.52963582e-002, 7.46332332e-002,
          5.63237593e-002, 1.60332128e-001, 6.29117787e-002,
          1.64648578e-001, 0., 1.83236390e-001, 1.87452123e-001,
          1.55622780e-001, 0., 0., 0., 0., 1.34173051e-001,
          2.00771898e-001, 2.47855172e-001, 1.90695137e-001,
          3.73163223e-002, 0., 0., 0. ]
      - [ 1.90823317e-001, 2.04151914e-001, 1.98278010e-001,
          1.68287039e-001, 5.04325815e-002, 0., 0., 0., 1.18186712e-001,
          1.81870282e-001, 1.63469702e-001, 1.20861992e-001,
          9.06021148e-003, 0., 8.62751342e-003, 9.39368643e-003, 0., 0.,
          0., 0., 9.07388180e-002, 1.31024554e-001, 2.01156199e-001,
          1.67338371e-001, 0., 0., 0., 0., 1.14395350e-001,
          2.17362031e-001, 2.05631196e-001, 2.07038552e-001,
          9.04777870e-002, 1.09420337e-001, 8.38364288e-002,
          1.64308593e-001, 2.13668242e-001, 1.47567689e-001,
          1.14323348e-001, 1.79103792e-001, 5.20764962e-002,
          7.98908100e-002, 8.70681256e-002, 1.63460940e-001,
          1.97692946e-001, 2.04150155e-002, 3.60545926e-002,
          1.24436997e-001, 1.59363538e-001, 1.10871777e-001,
          1.24380425e-001, 8.36589858e-002, 1.05917975e-001, 0.,
          2.33306456e-002, 2.12689981e-001, 1.80838928e-001,
          1.50345996e-001, 1.13401771e-001, 1.71974108e-001,
          1.22277178e-001, 4.37213816e-002, 6.33775592e-002,
          1.46764338e-001 ]
      - [ 2.97915667e-001, 1.12484418e-001, 1.15328744e-001,
          1.53072506e-001, 1.12270124e-001, 2.49206591e-002,
          4.15579751e-002, 6.38016462e-002, 2.67114520e-001,
          8.77902582e-002, 5.66491075e-002, 8.40648562e-002, 0., 0., 0.,
          1.74451210e-002, 9.79117900e-002, 0., 0., 1.27978370e-001,
          4.52218615e-002, 9.42262337e-002, 4.63411510e-002,
          2.24684104e-001, 1.05445564e-001, 0., 0., 0., 1.80311233e-001,
          1.38902783e-001, 2.21893594e-001, 2.04790697e-001,
          1.25339881e-001, 4.67454195e-002, 0., 0., 1.41377091e-001,
          2.41486862e-001, 1.49797052e-001, 1.83014959e-001,
          1.31081298e-001, 0., 0., 0., 0., 1.79303765e-001,
          1.78924412e-001, 1.35828450e-001, 0., 2.88153112e-001,
          1.04322381e-001, 0., 0., 0., 0., 0., 1.26939520e-001,
          3.15028787e-001, 1.63227692e-001, 1.47435263e-001, 0., 0., 0.,
          0. ]
      - [ 2.12673903e-001, 2.47147501e-001, 1.16573662e-001,
          1.64226606e-001, 1.35519296e-001, 0., 9.65913758e-003,
          8.64448491e-003, 9.87930503e-003, 0., 9.09126624e-002, 0., 0.,
          0., 7.15977512e-003, 1.66264340e-001, 1.84188426e-001,
          1.70950443e-002, 0., 0., 1.17106438e-001, 1.05407603e-001,
          8.71124417e-002, 1.15072437e-001, 0., 1.66991904e-001,
          9.20771509e-002, 1.92178845e-001, 1.54751003e-001,
          1.56621873e-001, 1.81741610e-001, 2.16625676e-001, 0., 0., 0.,
          7.57054053e-003, 1.56352237e-001, 2.53068268e-001,
          2.92706490e-001, 1.28604114e-001, 0., 1.16244433e-002,
          4.26116027e-002, 1.34203389e-001, 0., 9.26981866e-002,
          6.22246452e-002, 0., 5.78677244e-002, 1.95237368e-001,
          9.71402451e-002, 1.15562543e-001, 8.51445552e-003, 0.,
          2.09460091e-002, 1.54794827e-001, 1.93508565e-001,
          1.23065181e-001, 2.30328277e-001, 2.84820586e-001,
          7.58284181e-002, 0., 0., 1.11795768e-001 ]
      - [ 8.66894517e-003, 2.13565141e-001, 2.48345569e-001,
          1.68213412e-001, 8.46351907e-002, 0., 0., 0., 0.,
          2.12453499e-001, 1.11900941e-001, 0., 8.45624879e-002,
          7.80686364e-002, 6.93136081e-002, 8.44210461e-002,
          1.32846221e-001, 0., 0., 0., 1.44525036e-001, 1.31682590e-001,
          1.44059047e-001, 1.13354698e-001, 1.28876597e-001,
          8.65254328e-002, 0., 6.57554790e-002, 1.78419143e-001,
          2.05846757e-001, 2.08020672e-001, 1.31454229e-001,
          8.78835991e-002, 0., 5.06447032e-002, 0., 1.59093156e-001,
          2.14145198e-001, 2.19796807e-001, 1.37804106e-001, 0., 0.,
          1.15064092e-001, 1.52779922e-001, 1.21834829e-001,
          8.34443346e-002, 8.10163617e-002, 1.58422038e-001,
          6.07588477e-002, 1.06783710e-001, 1.36311293e-001,
          1.78071052e-001, 1.52872026e-001, 0., 0., 1.63790137e-001,
          1.12437077e-001, 1.56060338e-001, 1.37902662e-001,
          2.85028905e-001, 3.79461348e-002, 0., 4.65333164e-002,
          1.62599772e-001 ]
      - [ 2.84867465e-001, 1.40706807e-001, 1.21216580e-001,
          1.48213625e-001, 1.21828966e-001, 0., 0., 0., 0.,
          1.93055391e-001, 0., 0., 3.73532362e-002, 0., 7.56776053e-003,
          1.41733155e-001, 1.92558050e-001, 1.07024293e-002, 0.,
          1.33890688e-001, 5.30311167e-002, 9.55956727e-002, 0.,
          1.19468577e-001, 1.88488111e-001, 1.40268296e-001, 0., 0.,
          1.44326255e-001, 1.66722924e-001, 2.18573540e-001,
          2.05079079e-001, 0., 0., 0., 0., 2.02776879e-001,
          1.45277381e-001, 1.47169918e-001, 2.89012343e-001,
          3.47790904e-002, 7.42921308e-002, 1.06254980e-001,
          8.18834081e-002, 0., 1.12138882e-001, 0., 1.82475105e-001,
          1.79694727e-001, 2.07557887e-001, 9.84477028e-002,
          6.70459419e-002, 0., 0., 0., 2.28978433e-002, 2.79794961e-001,
          2.36302704e-001, 1.58936381e-001, 1.56854197e-001,
          4.06876020e-002, 0., 0., 0. ]
      - [ 1.02276072e-001, 2.33987167e-001, 3.07224989e-001, 0., 0., 0.,
          0., 0., 1.64335761e-002, 1.33865386e-001, 1.40372410e-001, 0.,
          0., 0., 0., 0., 1.35814413e-001, 2.38502193e-002, 0., 0.,
          1.49554834e-001, 9.91077870e-002, 1.01260908e-001,
          1.26672432e-001, 0., 1.46280840e-001, 0., 0., 1.84061840e-001,
          2.89876908e-001, 1.42083883e-001, 1.35728076e-001, 0., 0.,
          5.00085577e-002, 1.84980422e-001, 1.35783240e-001,
          9.57834125e-002, 3.01991254e-001, 1.35009468e-001, 0., 0.,
          1.43110946e-001, 1.44328773e-001, 5.75311370e-002,
          1.23529375e-001, 1.16891697e-001, 1.31211564e-001,
          1.44864440e-001, 1.22311451e-001, 1.32950172e-001,
          1.97210222e-001, 3.03205047e-002, 0., 0., 1.36095032e-001,
          1.94058582e-001, 1.51051745e-001, 2.39230111e-001,
          1.85054794e-001, 1.36622056e-001, 0., 0., 0. ]
      - [ 2.58969545e-001, 2.50418156e-001, 1.40837401e-001, 0., 0., 0.,
          0., 0., 1.89034641e-001, 6.57570437e-002, 0., 0., 0., 0., 0.,
          0., 1.83378264e-001, 2.03344300e-002, 0., 0., 0.,
          1.42917693e-001, 0., 1.26261041e-001, 2.26922885e-001, 0., 0.,
          0., 1.38465017e-001, 1.64981797e-001, 2.03994244e-001,
          2.10487708e-001, 8.98352340e-002, 6.38289228e-002,
          2.79660691e-002, 1.38526887e-001, 9.48089510e-002,
          1.84232652e-001, 1.60479799e-001, 2.18985856e-001,
          1.84545398e-001, 1.35995701e-001, 8.16470608e-002,
          8.64807442e-002, 3.25523131e-002, 0., 1.65359646e-001,
          9.79407132e-002, 2.04125926e-001, 1.33051932e-001,
          1.21037222e-001, 1.43636420e-001, 1.40139505e-001, 0.,
          5.36904298e-002, 1.68269530e-001, 1.92389026e-001,
          2.04533264e-001, 1.93843424e-001, 1.41665891e-001,
          1.42267063e-001, 0., 3.96896433e-003, 2.08733696e-002 ]
      - [ 1.78542227e-001, 1.48414642e-001, 2.50470817e-001,
          2.04395339e-001, 0., 0., 0., 1.50423432e-002, 0.,
          5.14599271e-002, 2.44376183e-001, 0., 0., 0., 2.23180335e-002,
          0., 1.22486390e-001, 0., 0., 0., 2.14622959e-001,
          1.05087407e-001, 9.75490138e-002, 7.03940019e-002,
          1.11013129e-001, 7.35050440e-002, 0., 0., 2.53036797e-001,
          1.86544076e-001, 1.76477522e-001, 1.44854456e-001, 0., 0.,
          1.40040621e-001, 1.30785033e-001, 1.05207264e-001,
          1.56272605e-001, 2.58690506e-001, 1.75228298e-001, 0.,
          1.68467425e-002, 3.84799466e-002, 1.80007562e-001,
          1.26472920e-001, 8.79132599e-002, 1.12749010e-001,
          1.20926425e-001, 1.68203339e-001, 6.90485165e-002,
          9.75561440e-002, 2.25004107e-001, 1.13928029e-002, 0., 0.,
          1.60655051e-001, 1.45437956e-001, 1.45519853e-001,
          1.94200158e-001, 2.59921759e-001, 1.13928029e-002, 0.,
          3.60011049e-002, 0. ]
      - [ 1.74993023e-001, 2.49538437e-001, 1.55123070e-001,
          1.28508106e-001, 0., 4.05213684e-002, 0., 1.08005844e-001,
          1.62664950e-001, 9.05702040e-002, 8.43104944e-002,
          7.78310969e-002, 8.71550441e-002, 9.09379348e-002,
          6.61339760e-002, 4.90535945e-002, 1.30232573e-001, 0., 0., 0.,
          4.93318662e-002, 1.45004407e-001, 1.96609408e-001,
          1.79870069e-001, 0., 0., 0., 0., 1.32349253e-001,
          2.54243970e-001, 1.33395284e-001, 2.23972425e-001, 0., 0., 0.,
          0., 1.25105366e-001, 2.05185473e-001, 3.00829947e-001,
          1.36358470e-001, 0., 0., 0., 0., 0., 9.00028720e-002,
          2.67723620e-001, 0., 0., 1.30474344e-001, 9.25427377e-002, 0.,
          1.76299617e-001, 6.74643219e-002, 3.48290093e-002,
          1.60112783e-001, 1.49843872e-001, 1.86898842e-001,
          1.71136439e-001, 2.18919426e-001, 0., 2.57463902e-002,
          9.37715098e-002, 2.06059828e-001 ]
      - [ 1.99617401e-001, 1.60982475e-001, 2.35206336e-001,
          1.54502317e-001, 2.37229969e-002, 0., 0., 0., 7.94389844e-002,
          1.54904291e-001, 1.38600871e-001, 4.51989323e-002, 0., 0.,
          8.91139265e-003, 5.05483374e-002, 1.33184791e-001,
          6.30130619e-003, 0., 0., 1.14830382e-001, 8.96392763e-002,
          1.22787930e-001, 1.31050423e-001, 1.79247275e-001,
          5.38861565e-002, 0., 1.39034539e-001, 1.64348826e-001,
          7.30138943e-002, 2.30096281e-001, 1.85210466e-001,
          1.32051289e-001, 0., 0., 1.94736302e-001, 1.40066072e-001,
          2.02394485e-001, 1.60096571e-001, 1.82740554e-001,
          1.29561171e-001, 3.37071531e-002, 7.04486147e-002,
          1.83042407e-001, 1.35676205e-001, 0., 1.15222298e-001,
          1.13815613e-001, 1.07744545e-001, 2.66171157e-001,
          7.66254291e-002, 9.15680304e-002, 0., 0., 0., 4.64830138e-002,
          2.57307798e-001, 1.80900574e-001, 1.31427854e-001,
          1.65353596e-001, 1.91494301e-001, 0., 0., 0. ]
      - [ 2.06899866e-001, 1.18629970e-001, 1.65349707e-001,
          2.05214173e-001, 0., 0., 0., 1.50176659e-001, 1.28081337e-001,
          9.80743170e-002, 5.70255667e-002, 0., 0., 0., 0.,
          2.51736999e-001, 2.06607655e-001, 0., 6.92459429e-003, 0., 0.,
          7.62959719e-002, 1.00700796e-001, 9.95751470e-002,
          1.10734165e-001, 0., 0., 0., 2.06420213e-001, 1.48502573e-001,
          1.01910539e-001, 2.92842984e-001, 1.24388978e-001, 0., 0.,
          1.08883962e-001, 1.25744313e-001, 1.71145737e-001,
          2.21473217e-001, 2.38883674e-001, 1.64474636e-001, 0., 0.,
          6.42994493e-002, 1.02006502e-001, 4.55706455e-002,
          1.40244648e-001, 1.24991126e-001, 1.45383954e-001,
          8.91374797e-002, 8.87064263e-002, 0., 1.15486100e-001, 0.,
          6.76753372e-002, 1.60867706e-001, 2.74683982e-001,
          1.90094709e-001, 1.39279872e-001, 2.03639522e-001, 0., 0., 0.,
          7.79706910e-002 ]
      - [ 1.76755130e-001, 2.51461625e-001, 2.14688733e-001, 0., 0., 0.,
          0., 0., 9.17240307e-002, 1.90394029e-001, 1.29811749e-001, 0.,
          0., 0., 0., 3.51021364e-002, 2.19760582e-001, 3.12817506e-002,
          0., 3.46033424e-002, 1.80980608e-001, 0., 9.39084291e-002,
          1.33727655e-001, 2.13049889e-001, 7.14646652e-002, 0., 0.,
          1.82984650e-001, 1.88021541e-001, 1.69141322e-001,
          1.26198187e-001, 0., 0., 1.16794474e-001, 8.70659426e-002,
          1.33449465e-001, 1.88611522e-001, 2.12303087e-001,
          8.16262290e-002, 1.84318140e-001, 0., 7.11127147e-002,
          1.37385786e-001, 0., 1.51289284e-001, 1.65417403e-001, 0.,
          1.18487485e-001, 1.48331687e-001, 2.15875730e-001,
          1.28673926e-001, 0., 0., 9.41634700e-002, 1.55729830e-001,
          1.17054440e-001, 2.06485033e-001, 1.90226436e-001,
          2.24047855e-001, 0., 0., 2.33670417e-002, 1.13178745e-001 ]
      - [ 1.83030009e-001, 2.87525386e-001, 1.78984240e-001,
          1.22247010e-001, 2.47354414e-002, 0., 4.90780920e-003, 0.,
          2.06347946e-002, 1.18563354e-001, 8.82957131e-002, 0., 0., 0.,
          0., 0., 1.93562433e-001, 6.61050677e-002, 9.36357398e-003,
          1.01813354e-001, 8.51216689e-002, 8.59329253e-002,
          6.66554794e-002, 7.87650570e-002, 1.01922832e-001,
          1.68691412e-001, 0., 0., 2.59828925e-001, 1.82023764e-001,
          1.58137426e-001, 1.62449211e-001, 0., 0., 0., 0.,
          7.62954727e-002, 3.34031314e-001, 1.48840472e-001,
          1.83763653e-001, 0., 7.79183283e-002, 1.19252250e-001,
          1.30645588e-001, 0., 1.12329260e-001, 1.23186283e-001,
          1.06617384e-001, 1.39796183e-001, 9.25419107e-002,
          1.88805655e-001, 1.44999415e-001, 4.57741879e-002, 0.,
          7.78821781e-002, 2.04661310e-001, 6.39240295e-002,
          1.73681363e-001, 2.41805822e-001, 2.58445352e-001,
          2.69076452e-002, 0., 0., 2.39576716e-002 ]
      - [ 1.26430973e-001, 2.71464288e-001, 1.71822786e-001,
          1.25628278e-001, 1.08075820e-001, 5.33554330e-002, 0.,
          4.11692336e-002, 1.39432117e-001, 1.71044007e-001,
          1.66548684e-001, 0., 0., 0., 0., 1.93518437e-002, 0., 0., 0.,
          0., 1.36337340e-001, 9.63828191e-002, 1.56189725e-001,
          1.68063462e-001, 1.36897504e-001, 0., 0., 7.74284750e-002,
          2.02405810e-001, 1.47211120e-001, 2.04459056e-001,
          2.33632982e-001, 7.49771968e-002, 8.29617754e-002,
          3.55572924e-002, 1.48197263e-001, 1.59046933e-001,
          1.35289669e-001, 1.68812260e-001, 1.85175329e-001,
          9.91539955e-002, 3.11354343e-002, 6.36993274e-002,
          1.36874408e-001, 8.83312747e-002, 1.20671898e-001,
          1.66536406e-001, 3.98266017e-002, 8.98656920e-002,
          2.12517157e-001, 2.02210709e-001, 1.15089670e-001, 0., 0., 0.,
          0., 2.33780459e-001, 2.05974758e-001, 1.72547698e-001,
          1.27862826e-001, 1.72431916e-001, 0., 0., 0. ]
      - [ 5.25701828e-002, 1.85705468e-001, 1.91620082e-001,
          2.46309847e-001, 0., 0., 0., 0., 0., 0., 1.70673847e-001,
          1.01995952e-001, 1.70211345e-001, 6.83946982e-002,
          6.45002201e-002, 6.25143051e-002, 1.21795490e-001,
          1.51187181e-002, 5.20430990e-002, 0., 2.20541567e-001,
          1.65535495e-001, 9.67425629e-002, 0., 0., 0., 0.,
          6.95582703e-002, 2.75070727e-001, 1.74325213e-001,
          1.22758947e-001, 1.15882479e-001, 0., 0., 5.30823953e-002,
          1.94868922e-001, 1.47858202e-001, 2.63238549e-001,
          1.50672689e-001, 1.22564003e-001, 4.96257357e-002, 0.,
          6.65478557e-002, 2.27561176e-001, 1.46361351e-001,
          1.42264381e-001, 8.33101049e-002, 0., 0., 9.81480926e-002,
          1.55192092e-001, 1.61383912e-001, 1.67440891e-001, 0.,
          4.73423637e-002, 1.15583465e-001, 1.15236953e-001,
          1.54504314e-001, 1.87141374e-001, 1.93774566e-001,
          1.89963818e-001, 0., 2.37721447e-002, 1.21775314e-001 ]
      - [ 1.28259838e-001, 2.72572011e-001, 2.46280834e-001,
          1.45290360e-001, 0., 0., 0., 0., 0., 1.42310308e-002,
          1.14545517e-001, 1.07755110e-001, 0., 0., 0., 2.36847792e-002,
          2.28395797e-002, 0., 0., 0., 1.76173240e-001, 1.12805337e-001,
          7.61232451e-002, 5.45414463e-002, 1.08081333e-001,
          7.15099201e-002, 1.29705071e-001, 7.67889395e-002,
          2.22251952e-001, 2.30007350e-001, 1.27608493e-001,
          2.41829708e-001, 5.15678898e-003, 4.87698987e-003,
          3.37933600e-002, 1.27968669e-001, 1.78229854e-001,
          1.36177957e-001, 2.64135927e-001, 2.15933114e-001, 0., 0., 0.,
          0., 1.11434899e-001, 1.36398241e-001, 3.11043281e-002, 0., 0.,
          9.87010300e-002, 1.16446435e-001, 1.60275474e-001,
          1.29951596e-001, 2.00603362e-002, 2.69318912e-002,
          1.80961192e-001, 2.13132352e-001, 1.27080277e-001,
          1.93538427e-001, 1.90720558e-001, 1.96945578e-001,
          1.29862323e-001, 9.74296555e-002, 1.25681147e-001 ]
      - [ 0., 3.40815902e-001, 1.55361444e-001, 0., 0., 0., 0., 0.,
          5.44464812e-002, 2.09793180e-001, 1.17091656e-001,
          6.09197095e-002, 2.06454583e-002, 0., 0., 0., 1.71586603e-001,
          0., 0., 0., 1.86740831e-001, 9.60606039e-002, 1.11466691e-001,
          9.21056643e-002, 1.72250658e-001, 3.45359407e-002, 0., 0.,
          2.17827201e-001, 1.62321642e-001, 1.42390922e-001,
          1.72254771e-001, 0., 0., 7.87972137e-002, 1.38971955e-001,
          1.15358569e-001, 1.15640402e-001, 2.73411959e-001,
          1.94017172e-001, 9.66661647e-002, 0., 0., 1.21804826e-001,
          8.49837661e-002, 1.68864176e-001, 1.85118511e-001, 0., 0.,
          1.06825456e-001, 1.73261657e-001, 2.18140185e-001, 0., 0.,
          5.21345660e-002, 2.01057345e-001, 1.16026141e-001,
          1.02532506e-001, 1.94426700e-001, 2.30196789e-001,
          1.25731647e-001, 2.08519381e-002, 6.67762235e-002,
          1.39321148e-001 ]
      - [ 2.77004838e-001, 9.89596546e-002, 6.35657758e-002,
          8.63256454e-002, 2.02812433e-001, 0., 0., 4.34650145e-002,
          2.33881265e-001, 1.43408492e-001, 4.75471318e-002,
          1.06716044e-001, 0., 0., 2.41588950e-002, 1.22623235e-001,
          1.92425773e-001, 1.95534043e-002, 0., 0., 1.69691160e-001,
          1.10264448e-002, 1.01866663e-001, 1.74072981e-001,
          1.74206078e-001, 0., 0., 7.79812932e-002, 1.67303547e-001,
          1.40286416e-001, 1.88508168e-001, 1.55703411e-001,
          6.95023835e-002, 3.83038484e-002, 2.00146735e-002, 0.,
          2.31530592e-001, 1.55544236e-001, 1.70479760e-001,
          1.86347663e-001, 4.92843427e-002, 0., 0., 0., 1.75952107e-001,
          1.67594150e-001, 1.34307116e-001, 1.39819711e-001,
          1.35412663e-001, 1.26882672e-001, 1.66801795e-001,
          1.97665945e-001, 2.93046460e-002, 0., 0., 0., 1.90448821e-001,
          1.60185367e-001, 2.11465254e-001, 2.06923485e-001, 0., 0., 0.,
          6.73474371e-002 ]
      - [ 8.10987130e-002, 2.96904534e-001, 1.12003982e-001,
          1.20313041e-001, 1.30223662e-001, 2.60913242e-002, 0., 0.,
          5.54244295e-002, 9.00506005e-002, 0., 0., 1.14110984e-001,
          1.44549131e-001, 7.42431134e-002, 9.33290944e-002,
          2.19582766e-001, 7.25052580e-002, 0., 0., 7.48349577e-002,
          9.56831649e-002, 8.45424235e-002, 1.22188829e-001,
          1.78510621e-001, 1.22303732e-001, 0., 0., 1.65116072e-001,
          1.55391738e-001, 1.75653979e-001, 1.84962764e-001,
          8.64892378e-002, 0., 0., 0., 4.70200963e-002, 2.45696589e-001,
          2.32114881e-001, 2.05557317e-001, 0., 1.51710227e-001, 0.,
          1.21267483e-001, 5.25894016e-002, 0., 7.90080279e-002,
          1.61461473e-001, 1.55740559e-001, 1.49692208e-001,
          1.62405983e-001, 1.25672698e-001, 0., 0., 2.66663972e-002,
          1.85945198e-001, 1.59406364e-001, 2.60439903e-001,
          1.64565042e-001, 2.12046921e-001, 0., 3.90331857e-002, 0.,
          1.33303389e-001 ]
      - [ 1.59776762e-001, 1.57552019e-001, 1.48837537e-001,
          2.29163051e-001, 0., 2.34072004e-002, 0., 0., 0.,
          1.87882647e-001, 1.15572624e-001, 1.00224324e-001, 0., 0.,
          6.07393263e-003, 1.29183352e-001, 1.63655668e-001,
          8.58983770e-003, 0., 0., 1.54979870e-001, 1.00225419e-001,
          8.91318470e-002, 1.71139553e-001, 1.43475294e-001,
          1.98228359e-002, 0., 0., 1.25883505e-001, 2.22810671e-001,
          2.05695406e-001, 1.50239110e-001, 0., 4.83075641e-002,
          1.47525951e-001, 1.76191732e-001, 4.61834110e-002,
          2.00186700e-001, 1.34860978e-001, 1.94629431e-001,
          1.72390237e-001, 2.79110800e-002, 0., 0., 1.31618917e-001,
          1.48593232e-001, 1.08625017e-001, 1.30189374e-001,
          1.80920199e-001, 1.12068176e-001, 1.49932548e-001,
          1.44683972e-001, 0., 0., 0., 2.08840236e-001, 1.99146464e-001,
          1.39240786e-001, 1.75743535e-001, 1.95981473e-001,
          1.42796874e-001, 0., 7.01357331e-003, 1.27797708e-001 ]
      - [ 1.27305090e-001, 1.55850485e-001, 3.18848521e-001,
          4.53750230e-002, 0., 0., 0., 0., 0., 1.08165607e-001,
          2.00303361e-001, 0., 2.77167708e-002, 0., 0., 7.85676576e-003,
          1.84114814e-001, 1.32952733e-002, 0., 0., 1.88458681e-001,
          1.04663186e-001, 1.01487443e-001, 0., 1.31822407e-001,
          1.41948327e-001, 0., 4.94455695e-002, 2.52298385e-001,
          1.53761193e-001, 1.49057925e-001, 1.31363362e-001, 0., 0.,
          1.03131831e-001, 9.37779993e-002, 1.57310665e-001,
          1.64179772e-001, 2.99044341e-001, 8.23668763e-002, 0., 0.,
          1.21685542e-001, 6.93970546e-002, 1.47616163e-001,
          9.26473513e-002, 1.98054850e-001, 0., 5.90118617e-002,
          1.08632527e-001, 1.39259323e-001, 1.37679324e-001,
          1.56949818e-001, 0., 4.53933664e-002, 1.78346127e-001,
          1.38572052e-001, 1.45778507e-001, 1.78010926e-001,
          2.11530119e-001, 1.70138776e-001, 0., 2.60579437e-002,
          1.74148247e-001 ]
      - [ 8.75823200e-002, 2.93704510e-001, 2.38537937e-001, 0.,
          9.29584075e-003, 0., 0., 0., 0., 8.39046761e-002,
          9.78590026e-002, 2.00869232e-001, 0., 0., 2.77002584e-002, 0.,
          1.16947077e-001, 1.34070581e-002, 0., 1.63096458e-001,
          1.85087681e-001, 8.29697177e-002, 7.35157505e-002, 0.,
          1.30498141e-001, 1.56236470e-001, 3.82137336e-002, 0.,
          2.53939271e-001, 1.17915325e-001, 1.64255708e-001,
          2.11826816e-001, 0., 0., 0., 0., 1.29993975e-001,
          2.74605036e-001, 1.53572440e-001, 1.68268785e-001,
          7.83603638e-002, 0., 4.59593534e-002, 1.87408745e-001,
          1.23663671e-001, 1.59118831e-001, 8.13431144e-002, 0.,
          1.07240528e-001, 1.51585490e-001, 8.16837400e-002,
          1.99935153e-001, 1.27598271e-001, 3.61035503e-002,
          7.00742677e-002, 1.37345612e-001, 1.15709610e-001,
          2.04249427e-001, 1.59575537e-001, 2.50222147e-001,
          5.82184130e-003, 0., 2.77356599e-002, 9.96403247e-002 ]
      - [ 2.36570954e-001, 2.26445585e-001, 8.16677883e-002,
          1.05922669e-001, 1.39546826e-001, 0., 3.74961421e-002, 0.,
          1.96716934e-001, 0., 0., 0., 0., 0., 1.61768407e-001,
          1.01672024e-001, 2.00862005e-001, 7.91515484e-002, 0.,
          3.40261832e-002, 0., 9.91812199e-002, 1.43085539e-001,
          1.71290323e-001, 2.06181884e-001, 0., 0., 0., 1.43179968e-001,
          1.57263398e-001, 2.01548964e-001, 2.10846096e-001, 0., 0., 0.,
          0., 0., 1.92429930e-001, 2.40776658e-001, 2.41400003e-001, 0.,
          0., 1.15640163e-001, 7.82876611e-002, 0., 9.61387753e-002,
          9.27144065e-002, 1.68425202e-001, 1.94662482e-001,
          4.70172092e-002, 1.38990253e-001, 1.40140861e-001, 0., 0.,
          2.13281196e-002, 1.72159582e-001, 2.28959486e-001,
          1.78719059e-001, 1.40033945e-001, 2.00474173e-001, 0., 0., 0.,
          1.61993250e-001 ]
      - [ 2.45721146e-001, 2.54764110e-001, 1.20832197e-001,
          1.18479438e-001, 1.18932016e-001, 0., 0., 7.09369555e-002,
          2.61380941e-001, 1.21781699e-001, 4.32014279e-002, 0., 0., 0.,
          0., 1.66819151e-002, 1.78713188e-001, 0., 6.44066632e-002,
          1.31482556e-001, 8.50539878e-002, 1.00722015e-001,
          8.27885643e-002, 0., 2.02912241e-001, 8.73296559e-002, 0., 0.,
          2.45771766e-001, 1.04575180e-001, 1.52825862e-001,
          1.80856839e-001, 1.79759428e-001, 8.71124417e-002, 0.,
          8.03560764e-002, 3.93854044e-002, 1.62914395e-001,
          2.05930993e-001, 2.35945448e-001, 4.52358983e-002,
          7.20390901e-002, 1.11029953e-001, 4.40303609e-002, 0., 0.,
          6.20921189e-003, 2.00802892e-001, 1.35069698e-001,
          1.47181377e-001, 1.78257555e-001, 1.21752068e-001, 0., 0., 0.,
          5.45871072e-002, 1.79235473e-001, 2.15167686e-001,
          1.83203176e-001, 2.27884203e-001, 0., 0., 0., 0. ]
      - [ 1.78486750e-001, 2.10661009e-001, 2.12172136e-001,
          2.14821592e-001, 0., 0., 0., 0., 0., 1.59846425e-001,
          1.35321647e-001, 1.30311996e-001, 0., 0., 5.69936866e-003, 0.,
          1.20770447e-001, 3.11097242e-002, 4.75192629e-002,
          1.30312249e-001, 1.03457376e-001, 1.13321222e-001,
          9.79504138e-002, 5.51873296e-002, 1.90529600e-001,
          7.69295692e-002, 3.10704578e-002, 0., 2.23712385e-001,
          1.95495278e-001, 1.49251238e-001, 2.16634393e-001,
          4.81311418e-002, 0., 1.46694690e-001, 1.08148649e-001,
          1.24559000e-001, 1.72012225e-001, 1.22204922e-001,
          2.88216919e-001, 6.03323393e-002, 3.52918580e-002, 0., 0.,
          8.36347193e-002, 1.18161902e-001, 1.24573283e-001,
          1.02763422e-001, 1.22922651e-001, 1.23464495e-001,
          1.58796161e-001, 0., 0., 0., 3.37563716e-002, 2.33538941e-001,
          1.52972609e-001, 1.78882048e-001, 1.70268625e-001,
          2.15870723e-001, 9.01149306e-003, 0., 0., 1.64942890e-001 ]
      - [ 1.33636549e-001, 2.28226110e-001, 1.61049262e-001,
          1.65903792e-001, 1.64324448e-001, 0., 0., 0., 0.,
          2.19491944e-001, 7.59194568e-002, 1.37428910e-001,
          5.75198792e-002, 1.03950739e-001, 8.59484449e-002, 0., 0.,
          4.54787947e-002, 5.59377447e-002, 1.45747289e-001,
          9.20712799e-002, 1.05727404e-001, 1.43536210e-001,
          1.00458376e-001, 1.38804033e-001, 0., 0., 0., 2.18221113e-001,
          1.73578382e-001, 1.70716509e-001, 1.80046991e-001, 0., 0.,
          3.66616286e-002, 1.06875829e-001, 2.20584363e-001,
          2.28729278e-001, 1.50484994e-001, 1.32189035e-001, 0.,
          7.28548467e-002, 1.15894265e-001, 9.56992507e-002,
          1.02373354e-001, 2.04689711e-001, 1.55607358e-001, 0.,
          1.36878788e-001, 1.10316359e-001, 1.47585824e-001,
          2.10123599e-001, 8.26171413e-002, 0., 0., 0., 1.55959845e-001,
          1.51059046e-001, 2.35948324e-001, 2.29853764e-001,
          2.45803352e-002, 0., 4.03619967e-002, 0. ]
      - [ 3.24539393e-001, 8.95420015e-002, 1.09183930e-001,
          8.17058235e-002, 1.21965021e-001, 2.34708525e-002, 0.,
          7.22345039e-002, 2.36950025e-001, 0., 0., 0., 0., 0., 0.,
          4.09768485e-002, 2.42979363e-001, 2.05304828e-002, 0.,
          9.38510373e-002, 0., 1.01779178e-001, 4.91141006e-002,
          9.05368328e-002, 2.67572790e-001, 0., 5.29023632e-002, 0.,
          1.91811964e-001, 8.26859400e-002, 1.22998163e-001,
          1.97942615e-001, 0., 0., 0., 5.13560884e-002, 1.58149332e-001,
          9.91295502e-002, 2.53966898e-001, 1.94495589e-001,
          9.70705524e-002, 9.08456668e-002, 0., 8.04541260e-002, 0.,
          8.67358372e-002, 1.75359473e-001, 1.76926151e-001,
          1.79399714e-001, 1.77018866e-001, 1.82425484e-001, 0., 0.,
          4.03490663e-002, 1.39713800e-002, 1.72186971e-001,
          1.89241022e-001, 1.86369732e-001, 2.15154454e-001,
          1.41005829e-001, 1.00283340e-001, 6.68984503e-002, 0.,
          1.22353710e-001 ]
      - [ 2.06223071e-001, 2.40910009e-001, 1.97729036e-001, 0.,
          3.28170992e-002, 0., 5.94129972e-002, 0., 1.23779051e-001,
          1.17348798e-001, 9.80278328e-002, 1.27771407e-001, 0.,
          5.58897331e-002, 0., 1.40897846e-002, 1.24556087e-001, 0., 0.,
          5.01913577e-002, 1.40589550e-001, 9.66017395e-002,
          8.87479410e-002, 1.87737957e-001, 1.14464335e-001, 0.,
          4.92715649e-002, 6.01018779e-002, 1.34000480e-001,
          1.83826089e-001, 1.81702733e-001, 2.07793728e-001,
          9.15613621e-002, 0., 0., 1.33081853e-001, 1.31583095e-001,
          1.42722681e-001, 2.49860778e-001, 1.71733379e-001,
          1.61819711e-001, 1.12124369e-001, 8.08980986e-002,
          1.26157150e-001, 5.96564859e-002, 9.00397226e-002,
          1.09764919e-001, 1.73946962e-001, 1.91837206e-001,
          1.30737558e-001, 1.28549293e-001, 1.65871412e-001,
          1.01065144e-001, 0., 0., 0., 2.45289698e-001, 1.96082100e-001,
          1.50215939e-001, 2.26444736e-001, 0., 0., 1.41834095e-002,
          9.13759246e-002 ]
      - [ 1.32535279e-001, 2.69812405e-001, 2.03361899e-001,
          5.29873967e-002, 0., 0., 0., 0., 8.12049657e-002,
          1.13453887e-001, 8.14490318e-002, 0., 1.86793599e-002, 0.,
          5.09850346e-002, 8.64780322e-002, 1.80724442e-001,
          1.34151950e-002, 0., 9.79078561e-002, 9.34249535e-002,
          3.97722274e-002, 9.93836001e-002, 1.14685677e-001,
          1.72116667e-001, 5.10904938e-002, 0., 0., 1.57282069e-001,
          1.78122669e-001, 2.00404808e-001, 1.98308229e-001, 0., 0.,
          5.67813814e-002, 0., 1.49966821e-001, 2.69402653e-001,
          1.66781440e-001, 1.57627791e-001, 0., 1.98919818e-001,
          1.24495953e-001, 8.03550705e-002, 1.04160488e-001,
          8.97297412e-002, 0., 1.69442654e-001, 1.45656377e-001,
          1.99674144e-001, 1.47140697e-001, 1.42504945e-001,
          8.89000669e-002, 8.03497732e-002, 0., 1.07239299e-001,
          2.42665663e-001, 1.84937388e-001, 1.95454925e-001,
          2.53590226e-001, 1.31829455e-002, 0., 0., 1.49088847e-002 ]
      - [ 1.31498098e-001, 2.20457017e-001, 1.96056798e-001,
          2.41802782e-001, 0., 0., 0., 0., 2.95979008e-002,
          1.16377413e-001, 1.67914569e-001, 2.02130318e-001, 0., 0., 0.,
          1.41817722e-002, 2.19789535e-001, 2.54611373e-002, 0., 0., 0.,
          0., 1.75223336e-001, 1.54876739e-001, 1.47996649e-001,
          1.18855424e-001, 1.02901414e-001, 1.29205227e-001,
          8.67785513e-002, 1.29493997e-001, 1.61113754e-001,
          1.25072017e-001, 0., 4.23730575e-002, 0., 0., 3.01943541e-001,
          1.45347431e-001, 1.20510779e-001, 1.42982960e-001,
          1.23206928e-001, 1.53743178e-002, 5.09160869e-002,
          1.88336402e-001, 1.28477320e-001, 1.25000060e-001,
          1.64864540e-001, 0., 1.63206905e-001, 2.05791205e-001,
          1.21051148e-001, 0., 1.02814259e-002, 0., 3.49035189e-002,
          1.66133612e-001, 1.84451267e-001, 1.74467102e-001,
          1.27009958e-001, 1.30237818e-001, 1.26438573e-001,
          1.03562534e-001, 3.99418809e-002, 1.42807037e-001 ]
      - [ 1.64988086e-001, 2.51977742e-001, 2.30299622e-001,
          7.45624602e-002, 0., 0., 0., 0., 0., 1.99394763e-001,
          1.19729862e-001, 1.22068055e-001, 0., 0., 0., 2.76775919e-002,
          1.89067289e-001, 4.90598194e-003, 0., 1.26433328e-001,
          1.81949332e-001, 0., 1.14276245e-001, 1.09350972e-001,
          1.50620416e-001, 8.62323716e-002, 2.82443836e-002,
          1.78932101e-001, 1.28744468e-001, 2.03721493e-001,
          1.30662963e-001, 1.51268899e-001, 0., 0., 1.43156294e-002,
          1.26308322e-001, 1.92174017e-001, 1.58759966e-001,
          2.16381162e-001, 1.03793435e-001, 5.50980456e-002,
          1.28057882e-001, 1.29676372e-001, 8.41339901e-002,
          1.22404315e-001, 1.49911851e-001, 1.15801498e-001, 0.,
          4.10735868e-002, 1.67729910e-002, 1.56254664e-001,
          2.39603341e-001, 0., 0., 1.30772606e-001, 1.23193264e-001,
          1.56782523e-001, 9.00555179e-002, 1.71517357e-001,
          2.49675110e-001, 1.28165558e-001, 4.11215723e-002,
          1.10682264e-001, 9.54491720e-002 ]
      - [ 2.48966977e-001, 2.25014076e-001, 8.61975178e-002,
          1.51696011e-001, 0., 0., 0., 0., 2.28349373e-001,
          1.57627314e-001, 8.11519846e-002, 0., 0., 0., 0.,
          1.41908765e-001, 1.68494329e-001, 7.95998052e-002, 0., 0.,
          1.16141826e-001, 1.34464577e-001, 0., 1.59765437e-001,
          1.51474684e-001, 0., 0., 4.11105976e-002, 1.62878469e-001,
          1.23821154e-001, 1.84522673e-001, 2.12228715e-001,
          1.43428445e-001, 0., 2.62853056e-002, 0., 1.13825500e-001,
          1.89946443e-001, 1.84880808e-001, 2.09314406e-001,
          1.13913707e-001, 7.71285295e-002, 9.81660336e-002,
          8.64945948e-002, 0., 0., 1.56352192e-001, 1.45838797e-001,
          1.72468498e-001, 2.32581854e-001, 1.10125594e-001,
          1.02758266e-001, 0., 0., 1.05781704e-002, 0., 2.69399077e-001,
          2.38359153e-001, 1.87464565e-001, 1.20829664e-001, 0., 0., 0.,
          0. ]
      - [ 1.76785812e-001, 1.43177256e-001, 1.88228965e-001,
          1.69647351e-001, 1.71132594e-001, 6.15404136e-002, 0., 0.,
          1.14220589e-001, 5.73472902e-002, 1.54828548e-001,
          1.97281793e-001, 0., 0., 0., 0., 7.07013682e-002,
          3.60760535e-003, 0., 0., 1.78583458e-001, 1.25266567e-001,
          2.03114867e-001, 0., 0., 0., 0., 0., 2.19517246e-001,
          1.89750448e-001, 1.70066759e-001, 2.09169060e-001, 0., 0., 0.,
          4.56797183e-002, 3.01848292e-001, 1.33579314e-001,
          1.65880814e-001, 1.27454773e-001, 0., 0., 0., 0.,
          2.69372970e-001, 8.98937955e-002, 9.17916894e-002,
          6.83909729e-002, 8.93952101e-002, 1.08444966e-001,
          1.85735375e-001, 1.14418350e-001, 1.81422666e-001, 0.,
          1.02038486e-002, 3.05181164e-002, 1.84096366e-001,
          1.20540194e-001, 2.33104527e-001, 2.44229198e-001,
          2.84579005e-002, 0., 1.86655596e-002, 8.72467533e-002 ]
      - [ 1.87219217e-001, 2.77766526e-001, 1.14318252e-001, 0.,
          1.40532508e-001, 8.30990151e-002, 0., 7.49379769e-002,
          1.65859118e-001, 2.30709836e-001, 0., 0., 0., 0., 0.,
          6.68796292e-003, 1.20279808e-002, 1.11380201e-002,
          4.07610573e-002, 1.25843570e-001, 1.16308197e-001, 0.,
          9.69965979e-002, 1.77112013e-001, 1.57900050e-001,
          4.24144231e-002, 0., 0., 1.82764605e-001, 1.46839038e-001,
          2.25377113e-001, 2.11228564e-001, 5.86281084e-002, 0.,
          8.54458362e-002, 1.26011983e-001, 1.17650658e-001,
          1.11688584e-001, 2.57107556e-001, 1.65876865e-001, 0.,
          5.21853678e-002, 5.51874712e-002, 6.76544681e-002, 0.,
          1.66044921e-001, 1.64730847e-001, 1.57216758e-001,
          1.14068955e-001, 1.48372307e-001, 2.56694466e-001,
          6.79685995e-002, 0., 0., 0., 1.22993670e-001, 1.24527760e-001,
          2.43981332e-001, 2.18906045e-001, 1.80422455e-001, 0., 0., 0.,
          0. ]
      - [ 2.21395120e-001, 1.99635088e-001, 1.50653258e-001,
          1.40200108e-001, 1.22881725e-001, 0., 0., 4.31415588e-002,
          2.04440266e-001, 1.50359020e-001, 1.48451433e-001,
          1.10920005e-001, 0., 0., 0., 4.39575426e-002, 1.58762589e-001,
          3.40077244e-002, 6.58229664e-002, 1.04540847e-001,
          1.45139903e-001, 7.72675201e-002, 8.79996344e-002,
          1.87944651e-001, 1.22502156e-001, 0., 0., 1.11677356e-001,
          1.51375309e-001, 1.68569654e-001, 1.74336687e-001,
          1.56800300e-001, 1.61404356e-001, 0., 4.53581586e-002, 0.,
          1.29060596e-001, 2.17053995e-001, 1.53710887e-001,
          2.04836637e-001, 9.95120257e-002, 0., 1.42532829e-002, 0.,
          1.31216109e-001, 1.09969869e-001, 1.98428258e-002,
          1.96630165e-001, 2.02120930e-001, 1.82635054e-001,
          1.69984832e-001, 2.41286904e-002, 0., 0., 0., 1.99735928e-002,
          1.87297568e-001, 2.51086593e-001, 2.18715146e-001,
          1.39912874e-001, 0., 0., 8.13761447e-003, 0. ]
      - [ 2.83778906e-001, 2.44402424e-001, 1.45443305e-001, 0., 0., 0.,
          0., 0., 1.68980166e-001, 1.40364096e-001, 0., 0., 0., 0., 0.,
          0., 1.25312477e-001, 5.88354375e-003, 4.83296216e-002, 0., 0.,
          9.63834077e-002, 0., 1.79656371e-001, 1.89939633e-001, 0., 0.,
          0., 0., 1.88840091e-001, 2.04419225e-001, 2.48979494e-001,
          1.36894062e-001, 0., 0., 1.51278660e-001, 0., 1.48696259e-001,
          2.56528050e-001, 1.99416026e-001, 1.58833280e-001,
          1.04819626e-001, 1.29181996e-001, 7.76694417e-002,
          9.50791910e-002, 0., 1.00681148e-001, 1.46884799e-001,
          2.25551009e-001, 1.53898865e-001, 7.42925480e-002,
          1.37041152e-001, 0., 2.39863712e-002, 5.88354375e-003,
          1.32029116e-001, 3.04652780e-001, 1.09053493e-001,
          1.43874198e-001, 1.47213116e-001, 1.48988500e-001, 0., 0., 0. ]
      - [ 1.74125567e-001, 2.36987293e-001, 2.60200620e-001,
          5.34501784e-002, 0., 0., 1.24461919e-001, 7.33998120e-002,
